## LambdaMART
## No. of trees = 1500
## No. of leaves = 15
## No. of threshold candidates = 256
## Learning rate = 0.1
## Stop early = 100

<ensemble>
	<tree id="1" weight="0.1">
		<split>
			<feature> 22 </feature>
			<threshold> 0.5625 </threshold>
			<split pos="left">
				<feature> 1 </feature>
				<threshold> 0.0 </threshold>
				<split pos="left">
					<feature> 4 </feature>
					<threshold> 0.125 </threshold>
					<split pos="left">
						<output> -2.0 </output>
					</split>
					<split pos="right">
						<feature> 11 </feature>
						<threshold> 0.36391813 </threshold>
						<split pos="left">
							<output> 1.9985119104385376 </output>
						</split>
						<split pos="right">
							<output> 1.982608675956726 </output>
						</split>
					</split>
				</split>
				<split pos="right">
					<output> -0.31572410464286804 </output>
				</split>
			</split>
			<split pos="right">
				<feature> 1 </feature>
				<threshold> 0.0 </threshold>
				<split pos="left">
					<feature> 34 </feature>
					<threshold> 0.9609375 </threshold>
					<split pos="left">
						<feature> 26 </feature>
						<threshold> 0.79296875 </threshold>
						<split pos="left">
							<feature> 35 </feature>
							<threshold> 0.90234375 </threshold>
							<split pos="left">
								<output> 2.0 </output>
							</split>
							<split pos="right">
								<feature> 16 </feature>
								<threshold> 0.75024843 </threshold>
								<split pos="left">
									<output> 2.0 </output>
								</split>
								<split pos="right">
									<feature> 5 </feature>
									<threshold> 0.02734375 </threshold>
									<split pos="left">
										<feature> 7 </feature>
										<threshold> 0.7890625 </threshold>
										<split pos="left">
											<output> 2.0 </output>
										</split>
										<split pos="right">
											<feature> 22 </feature>
											<threshold> 0.73828125 </threshold>
											<split pos="left">
												<feature> 2 </feature>
												<threshold> 0.27622035 </threshold>
												<split pos="left">
													<output> 2.0 </output>
												</split>
												<split pos="right">
													<output> 2.0 </output>
												</split>
											</split>
											<split pos="right">
												<output> 2.0 </output>
											</split>
										</split>
									</split>
									<split pos="right">
										<feature> 2 </feature>
										<threshold> 0.21762808 </threshold>
										<split pos="left">
											<output> 2.0 </output>
										</split>
										<split pos="right">
											<output> 2.0 </output>
										</split>
									</split>
								</split>
							</split>
						</split>
						<split pos="right">
							<output> 2.0 </output>
						</split>
					</split>
					<split pos="right">
						<output> 2.0 </output>
					</split>
				</split>
				<split pos="right">
					<output> 1.9998626708984375 </output>
				</split>
			</split>
		</split>
	</tree>
	<tree id="2" weight="0.1">
		<split>
			<feature> 22 </feature>
			<threshold> 0.56640625 </threshold>
			<split pos="left">
				<output> -1.9016543626785278 </output>
			</split>
			<split pos="right">
				<feature> 1 </feature>
				<threshold> 0.076171875 </threshold>
				<split pos="left">
					<feature> 4 </feature>
					<threshold> 0.24609375 </threshold>
					<split pos="left">
						<output> 1.792891025543213 </output>
					</split>
					<split pos="right">
						<feature> 20 </feature>
						<threshold> 0.76953125 </threshold>
						<split pos="left">
							<output> 1.7910034656524658 </output>
						</split>
						<split pos="right">
							<output> 1.7930132150650024 </output>
						</split>
					</split>
				</split>
				<split pos="right">
					<feature> 14 </feature>
					<threshold> 0.99218774 </threshold>
					<split pos="left">
						<feature> 25 </feature>
						<threshold> 0.640625 </threshold>
						<split pos="left">
							<feature> 7 </feature>
							<threshold> 0.69140625 </threshold>
							<split pos="left">
								<output> 1.7907754182815552 </output>
							</split>
							<split pos="right">
								<output> 1.7816182374954224 </output>
							</split>
						</split>
						<split pos="right">
							<feature> 1 </feature>
							<threshold> 0.22265625 </threshold>
							<split pos="left">
								<output> 1.792015790939331 </output>
							</split>
							<split pos="right">
								<feature> 7 </feature>
								<threshold> 0.79296875 </threshold>
								<split pos="left">
									<output> 1.791846513748169 </output>
								</split>
								<split pos="right">
									<feature> 21 </feature>
									<threshold> 0.7734375 </threshold>
									<split pos="left">
										<output> 1.7859702110290527 </output>
									</split>
									<split pos="right">
										<feature> 1 </feature>
										<threshold> 0.3515625 </threshold>
										<split pos="left">
											<output> 1.7920693159103394 </output>
										</split>
										<split pos="right">
											<feature> 9 </feature>
											<threshold> 0.015920313 </threshold>
											<split pos="left">
												<output> 1.7920838594436646 </output>
											</split>
											<split pos="right">
												<feature> 5 </feature>
												<threshold> 0.0390625 </threshold>
												<split pos="left">
													<output> 1.791890025138855 </output>
												</split>
												<split pos="right">
													<feature> 26 </feature>
													<threshold> 0.55078125 </threshold>
													<split pos="left">
														<output> 1.7925243377685547 </output>
													</split>
													<split pos="right">
														<output> 1.7915968894958496 </output>
													</split>
												</split>
											</split>
										</split>
									</split>
								</split>
							</split>
						</split>
					</split>
					<split pos="right">
						<output> 0.7190961241722107 </output>
					</split>
				</split>
			</split>
		</split>
	</tree>
	<tree id="3" weight="0.1">
		<split>
			<feature> 24 </feature>
			<threshold> 0.55078125 </threshold>
			<split pos="left">
				<output> -1.2993322610855103 </output>
			</split>
			<split pos="right">
				<feature> 1 </feature>
				<threshold> 0.076171875 </threshold>
				<split pos="left">
					<feature> 22 </feature>
					<threshold> 0.68359375 </threshold>
					<split pos="left">
						<output> 1.5444058179855347 </output>
					</split>
					<split pos="right">
						<feature> 9 </feature>
						<threshold> 0.2697503 </threshold>
						<split pos="left">
							<output> 1.54810631275177 </output>
						</split>
						<split pos="right">
							<output> 1.547970175743103 </output>
						</split>
					</split>
				</split>
				<split pos="right">
					<feature> 14 </feature>
					<threshold> 0.99218774 </threshold>
					<split pos="left">
						<feature> 25 </feature>
						<threshold> 0.640625 </threshold>
						<split pos="left">
							<feature> 7 </feature>
							<threshold> 0.69140625 </threshold>
							<split pos="left">
								<output> 1.5541760921478271 </output>
							</split>
							<split pos="right">
								<output> 1.535107135772705 </output>
							</split>
						</split>
						<split pos="right">
							<feature> 1 </feature>
							<threshold> 0.14648438 </threshold>
							<split pos="left">
								<output> 1.547383189201355 </output>
							</split>
							<split pos="right">
								<feature> 26 </feature>
								<threshold> 0.5546875 </threshold>
								<split pos="left">
									<output> 1.547135591506958 </output>
								</split>
								<split pos="right">
									<feature> 1 </feature>
									<threshold> 0.36328125 </threshold>
									<split pos="left">
										<feature> 37 </feature>
										<threshold> 0.640625 </threshold>
										<split pos="left">
											<output> 1.5482927560806274 </output>
										</split>
										<split pos="right">
											<output> 1.5470081567764282 </output>
										</split>
									</split>
									<split pos="right">
										<feature> 7 </feature>
										<threshold> 0.78515625 </threshold>
										<split pos="left">
											<output> 1.5469553470611572 </output>
										</split>
										<split pos="right">
											<feature> 38 </feature>
											<threshold> 0.95703125 </threshold>
											<split pos="left">
												<output> 1.5451266765594482 </output>
											</split>
											<split pos="right">
												<feature> 5 </feature>
												<threshold> 0.0390625 </threshold>
												<split pos="left">
													<output> 1.5475343465805054 </output>
												</split>
												<split pos="right">
													<output> 1.5470349788665771 </output>
												</split>
											</split>
										</split>
									</split>
								</split>
							</split>
						</split>
					</split>
					<split pos="right">
						<output> 0.30370408296585083 </output>
					</split>
				</split>
			</split>
		</split>
	</tree>
	<tree id="4" weight="0.1">
		<split>
			<feature> 24 </feature>
			<threshold> 0.55078125 </threshold>
			<split pos="left">
				<output> -1.172430157661438 </output>
			</split>
			<split pos="right">
				<feature> 1 </feature>
				<threshold> 0.076171875 </threshold>
				<split pos="left">
					<feature> 22 </feature>
					<threshold> 0.68359375 </threshold>
					<split pos="left">
						<output> 1.4085524082183838 </output>
					</split>
					<split pos="right">
						<feature> 10 </feature>
						<threshold> 0.2700423 </threshold>
						<split pos="left">
							<output> 1.4122645854949951 </output>
						</split>
						<split pos="right">
							<output> 1.4121687412261963 </output>
						</split>
					</split>
				</split>
				<split pos="right">
					<feature> 14 </feature>
					<threshold> 0.99218774 </threshold>
					<split pos="left">
						<feature> 1 </feature>
						<threshold> 0.24023438 </threshold>
						<split pos="left">
							<feature> 27 </feature>
							<threshold> 0.6015625 </threshold>
							<split pos="left">
								<output> 1.4052327871322632 </output>
							</split>
							<split pos="right">
								<output> 1.4114718437194824 </output>
							</split>
						</split>
						<split pos="right">
							<feature> 7 </feature>
							<threshold> 0.67578125 </threshold>
							<split pos="left">
								<output> 1.4467285871505737 </output>
							</split>
							<split pos="right">
								<feature> 23 </feature>
								<threshold> 0.67578125 </threshold>
								<split pos="left">
									<output> 1.3994572162628174 </output>
								</split>
								<split pos="right">
									<feature> 7 </feature>
									<threshold> 0.71875 </threshold>
									<split pos="left">
										<output> 1.4113049507141113 </output>
									</split>
									<split pos="right">
										<feature> 38 </feature>
										<threshold> 0.96484375 </threshold>
										<split pos="left">
											<feature> 7 </feature>
											<threshold> 0.8125 </threshold>
											<split pos="left">
												<output> 1.4112963676452637 </output>
											</split>
											<split pos="right">
												<feature> 21 </feature>
												<threshold> 0.78125 </threshold>
												<split pos="left">
													<output> 1.4038255214691162 </output>
												</split>
												<split pos="right">
													<output> 1.410711407661438 </output>
												</split>
											</split>
										</split>
										<split pos="right">
											<feature> 14 </feature>
											<threshold> 0.72273874 </threshold>
											<split pos="left">
												<output> 1.412297010421753 </output>
											</split>
											<split pos="right">
												<output> 1.4120620489120483 </output>
											</split>
										</split>
									</split>
								</split>
							</split>
						</split>
					</split>
					<split pos="right">
						<output> 0.22889713943004608 </output>
					</split>
				</split>
			</split>
		</split>
	</tree>
	<tree id="5" weight="0.1">
		<split>
			<feature> 22 </feature>
			<threshold> 0.5625 </threshold>
			<split pos="left">
				<output> -1.4713175296783447 </output>
			</split>
			<split pos="right">
				<feature> 1 </feature>
				<threshold> 0.076171875 </threshold>
				<split pos="left">
					<feature> 22 </feature>
					<threshold> 0.68359375 </threshold>
					<split pos="left">
						<output> 1.3551337718963623 </output>
					</split>
					<split pos="right">
						<feature> 10 </feature>
						<threshold> 0.2700423 </threshold>
						<split pos="left">
							<output> 1.3183361291885376 </output>
						</split>
						<split pos="right">
							<output> 1.3182504177093506 </output>
						</split>
					</split>
				</split>
				<split pos="right">
					<feature> 6 </feature>
					<threshold> 0.0 </threshold>
					<split pos="left">
						<feature> 25 </feature>
						<threshold> 0.67578125 </threshold>
						<split pos="left">
							<feature> 7 </feature>
							<threshold> 0.68359375 </threshold>
							<split pos="left">
								<output> 1.3509858846664429 </output>
							</split>
							<split pos="right">
								<feature> 23 </feature>
								<threshold> 0.67578125 </threshold>
								<split pos="left">
									<output> 1.3531774282455444 </output>
								</split>
								<split pos="right">
									<output> 1.313663125038147 </output>
								</split>
							</split>
						</split>
						<split pos="right">
							<feature> 1 </feature>
							<threshold> 0.14648438 </threshold>
							<split pos="left">
								<output> 1.318399429321289 </output>
							</split>
							<split pos="right">
								<feature> 1 </feature>
								<threshold> 0.35742188 </threshold>
								<split pos="left">
									<output> 1.3177789449691772 </output>
								</split>
								<split pos="right">
									<feature> 5 </feature>
									<threshold> 0.0390625 </threshold>
									<split pos="left">
										<output> 1.3183609247207642 </output>
									</split>
									<split pos="right">
										<feature> 3 </feature>
										<threshold> 0.092493355 </threshold>
										<split pos="left">
											<output> 1.320356845855713 </output>
										</split>
										<split pos="right">
											<feature> 9 </feature>
											<threshold> 0.015920313 </threshold>
											<split pos="left">
												<output> 1.3184579610824585 </output>
											</split>
											<split pos="right">
												<feature> 7 </feature>
												<threshold> 0.7890625 </threshold>
												<split pos="left">
													<output> 1.3175055980682373 </output>
												</split>
												<split pos="right">
													<output> 1.3169500827789307 </output>
												</split>
											</split>
										</split>
									</split>
								</split>
							</split>
						</split>
					</split>
					<split pos="right">
						<output> -2.302821397781372 </output>
					</split>
				</split>
			</split>
		</split>
	</tree>
	<tree id="6" weight="0.1">
		<split>
			<feature> 22 </feature>
			<threshold> 0.5625 </threshold>
			<split pos="left">
				<output> -1.272343635559082 </output>
			</split>
			<split pos="right">
				<feature> 1 </feature>
				<threshold> 0.076171875 </threshold>
				<split pos="left">
					<feature> 4 </feature>
					<threshold> 0.24609375 </threshold>
					<split pos="left">
						<output> 1.2475836277008057 </output>
					</split>
					<split pos="right">
						<feature> 3 </feature>
						<threshold> 0.096692964 </threshold>
						<split pos="left">
							<output> 1.2411755323410034 </output>
						</split>
						<split pos="right">
							<output> 1.2442197799682617 </output>
						</split>
					</split>
				</split>
				<split pos="right">
					<feature> 12 </feature>
					<threshold> 0.9921956 </threshold>
					<split pos="left">
						<feature> 7 </feature>
						<threshold> 0.67578125 </threshold>
						<split pos="left">
							<output> 1.2631514072418213 </output>
						</split>
						<split pos="right">
							<feature> 23 </feature>
							<threshold> 0.67578125 </threshold>
							<split pos="left">
								<output> 1.2676174640655518 </output>
							</split>
							<split pos="right">
								<feature> 1 </feature>
								<threshold> 0.16992188 </threshold>
								<split pos="left">
									<output> 1.240566372871399 </output>
								</split>
								<split pos="right">
									<feature> 7 </feature>
									<threshold> 0.71875 </threshold>
									<split pos="left">
										<output> 1.240172266960144 </output>
									</split>
									<split pos="right">
										<feature> 38 </feature>
										<threshold> 0.96484375 </threshold>
										<split pos="left">
											<feature> 7 </feature>
											<threshold> 0.8125 </threshold>
											<split pos="left">
												<output> 1.2398508787155151 </output>
											</split>
											<split pos="right">
												<feature> 21 </feature>
												<threshold> 0.77734375 </threshold>
												<split pos="left">
													<output> 1.2331881523132324 </output>
												</split>
												<split pos="right">
													<output> 1.2400307655334473 </output>
												</split>
											</split>
										</split>
										<split pos="right">
											<feature> 14 </feature>
											<threshold> 0.72273874 </threshold>
											<split pos="left">
												<output> 1.2408946752548218 </output>
											</split>
											<split pos="right">
												<feature> 3 </feature>
												<threshold> 0.2730766 </threshold>
												<split pos="left">
													<output> 1.2406630516052246 </output>
												</split>
												<split pos="right">
													<output> 1.2447489500045776 </output>
												</split>
											</split>
										</split>
									</split>
								</split>
							</split>
						</split>
					</split>
					<split pos="right">
						<output> -2.222604274749756 </output>
					</split>
				</split>
			</split>
		</split>
	</tree>
	<tree id="7" weight="0.1">
		<split>
			<feature> 22 </feature>
			<threshold> 0.5625 </threshold>
			<split pos="left">
				<output> -1.2466384172439575 </output>
			</split>
			<split pos="right">
				<feature> 1 </feature>
				<threshold> 0.076171875 </threshold>
				<split pos="left">
					<feature> 4 </feature>
					<threshold> 0.25 </threshold>
					<split pos="left">
						<output> 1.192896842956543 </output>
					</split>
					<split pos="right">
						<feature> 3 </feature>
						<threshold> 0.096692964 </threshold>
						<split pos="left">
							<output> 1.187345266342163 </output>
						</split>
						<split pos="right">
							<output> 1.1898832321166992 </output>
						</split>
					</split>
				</split>
				<split pos="right">
					<feature> 4 </feature>
					<threshold> 0.9921875 </threshold>
					<split pos="left">
						<feature> 7 </feature>
						<threshold> 0.67578125 </threshold>
						<split pos="left">
							<output> 1.2043620347976685 </output>
						</split>
						<split pos="right">
							<feature> 23 </feature>
							<threshold> 0.67578125 </threshold>
							<split pos="left">
								<output> 1.2047847509384155 </output>
							</split>
							<split pos="right">
								<feature> 1 </feature>
								<threshold> 0.16992188 </threshold>
								<split pos="left">
									<output> 1.1871459484100342 </output>
								</split>
								<split pos="right">
									<feature> 7 </feature>
									<threshold> 0.71875 </threshold>
									<split pos="left">
										<output> 1.186505675315857 </output>
									</split>
									<split pos="right">
										<feature> 7 </feature>
										<threshold> 0.80859375 </threshold>
										<split pos="left">
											<output> 1.1862367391586304 </output>
										</split>
										<split pos="right">
											<feature> 38 </feature>
											<threshold> 0.96484375 </threshold>
											<split pos="left">
												<feature> 21 </feature>
												<threshold> 0.77734375 </threshold>
												<split pos="left">
													<output> 1.1805588006973267 </output>
												</split>
												<split pos="right">
													<output> 1.1868531703948975 </output>
												</split>
											</split>
											<split pos="right">
												<feature> 14 </feature>
												<threshold> 0.72273874 </threshold>
												<split pos="left">
													<output> 1.1872944831848145 </output>
												</split>
												<split pos="right">
													<feature> 12 </feature>
													<threshold> 0.7035389 </threshold>
													<split pos="left">
														<output> 1.1873854398727417 </output>
													</split>
													<split pos="right">
														<output> 1.186919927597046 </output>
													</split>
												</split>
											</split>
										</split>
									</split>
								</split>
							</split>
						</split>
					</split>
					<split pos="right">
						<output> -2.1258902549743652 </output>
					</split>
				</split>
			</split>
		</split>
	</tree>
	<tree id="8" weight="0.1">
		<split>
			<feature> 22 </feature>
			<threshold> 0.55859375 </threshold>
			<split pos="left">
				<output> -1.0370556116104126 </output>
			</split>
			<split pos="right">
				<feature> 1 </feature>
				<threshold> 0.076171875 </threshold>
				<split pos="left">
					<feature> 12 </feature>
					<threshold> 0.25885153 </threshold>
					<split pos="left">
						<output> 1.1514033079147339 </output>
					</split>
					<split pos="right">
						<feature> 3 </feature>
						<threshold> 0.096692964 </threshold>
						<split pos="left">
							<output> 1.1468555927276611 </output>
						</split>
						<split pos="right">
							<output> 1.1487256288528442 </output>
						</split>
					</split>
				</split>
				<split pos="right">
					<feature> 11 </feature>
					<threshold> 0.99219203 </threshold>
					<split pos="left">
						<feature> 7 </feature>
						<threshold> 0.67578125 </threshold>
						<split pos="left">
							<output> 1.1892898082733154 </output>
						</split>
						<split pos="right">
							<feature> 23 </feature>
							<threshold> 0.67578125 </threshold>
							<split pos="left">
								<feature> 7 </feature>
								<threshold> 0.75 </threshold>
								<split pos="left">
									<output> 1.1641031503677368 </output>
								</split>
								<split pos="right">
									<output> 1.1574749946594238 </output>
								</split>
							</split>
							<split pos="right">
								<feature> 1 </feature>
								<threshold> 0.16992188 </threshold>
								<split pos="left">
									<output> 1.1466851234436035 </output>
								</split>
								<split pos="right">
									<feature> 7 </feature>
									<threshold> 0.71875 </threshold>
									<split pos="left">
										<output> 1.1458642482757568 </output>
									</split>
									<split pos="right">
										<feature> 1 </feature>
										<threshold> 0.3515625 </threshold>
										<split pos="left">
											<output> 1.1460129022598267 </output>
										</split>
										<split pos="right">
											<feature> 9 </feature>
											<threshold> 0.015920313 </threshold>
											<split pos="left">
												<output> 1.1481335163116455 </output>
											</split>
											<split pos="right">
												<feature> 26 </feature>
												<threshold> 0.796875 </threshold>
												<split pos="left">
													<feature> 7 </feature>
													<threshold> 0.8515625 </threshold>
													<split pos="left">
														<output> 1.1453607082366943 </output>
													</split>
													<split pos="right">
														<output> 1.1434091329574585 </output>
													</split>
												</split>
												<split pos="right">
													<output> 1.1476941108703613 </output>
												</split>
											</split>
										</split>
									</split>
								</split>
							</split>
						</split>
					</split>
					<split pos="right">
						<output> -2.0623152256011963 </output>
					</split>
				</split>
			</split>
		</split>
	</tree>
	<tree id="9" weight="0.1">
		<split>
			<feature> 22 </feature>
			<threshold> 0.55859375 </threshold>
			<split pos="left">
				<output> -1.067466378211975 </output>
			</split>
			<split pos="right">
				<feature> 1 </feature>
				<threshold> 0.076171875 </threshold>
				<split pos="left">
					<feature> 12 </feature>
					<threshold> 0.25885153 </threshold>
					<split pos="left">
						<output> 1.1216435432434082 </output>
					</split>
					<split pos="right">
						<output> 1.123460292816162 </output>
					</split>
				</split>
				<split pos="right">
					<feature> 12 </feature>
					<threshold> 0.9921956 </threshold>
					<split pos="left">
						<feature> 7 </feature>
						<threshold> 0.66796875 </threshold>
						<split pos="left">
							<output> 1.1754951477050781 </output>
						</split>
						<split pos="right">
							<feature> 23 </feature>
							<threshold> 0.67578125 </threshold>
							<split pos="left">
								<feature> 7 </feature>
								<threshold> 0.75 </threshold>
								<split pos="left">
									<output> 1.1326985359191895 </output>
								</split>
								<split pos="right">
									<feature> 2 </feature>
									<threshold> 0.32225722 </threshold>
									<split pos="left">
										<feature> 22 </feature>
										<threshold> 0.5625 </threshold>
										<split pos="left">
											<output> 1.7831025123596191 </output>
										</split>
										<split pos="right">
											<output> 1.1212533712387085 </output>
										</split>
									</split>
									<split pos="right">
										<output> 1.150596261024475 </output>
									</split>
								</split>
							</split>
							<split pos="right">
								<feature> 1 </feature>
								<threshold> 0.16992188 </threshold>
								<split pos="left">
									<output> 1.117880940437317 </output>
								</split>
								<split pos="right">
									<feature> 7 </feature>
									<threshold> 0.71875 </threshold>
									<split pos="left">
										<output> 1.1168822050094604 </output>
									</split>
									<split pos="right">
										<feature> 1 </feature>
										<threshold> 0.3515625 </threshold>
										<split pos="left">
											<output> 1.117149829864502 </output>
										</split>
										<split pos="right">
											<feature> 9 </feature>
											<threshold> 0.015920313 </threshold>
											<split pos="left">
												<output> 1.1198383569717407 </output>
											</split>
											<split pos="right">
												<feature> 26 </feature>
												<threshold> 0.796875 </threshold>
												<split pos="left">
													<output> 1.1147444248199463 </output>
												</split>
												<split pos="right">
													<output> 1.1189805269241333 </output>
												</split>
											</split>
										</split>
									</split>
								</split>
							</split>
						</split>
					</split>
					<split pos="right">
						<output> -2.0165722370147705 </output>
					</split>
				</split>
			</split>
		</split>
	</tree>
	<tree id="10" weight="0.1">
		<split>
			<feature> 22 </feature>
			<threshold> 0.55859375 </threshold>
			<split pos="left">
				<output> -1.0389728546142578 </output>
			</split>
			<split pos="right">
				<feature> 1 </feature>
				<threshold> 0.076171875 </threshold>
				<split pos="left">
					<feature> 12 </feature>
					<threshold> 0.25885153 </threshold>
					<split pos="left">
						<output> 1.097644567489624 </output>
					</split>
					<split pos="right">
						<feature> 3 </feature>
						<threshold> 0.096692964 </threshold>
						<split pos="left">
							<output> 1.0947943925857544 </output>
						</split>
						<split pos="right">
							<output> 1.1000341176986694 </output>
						</split>
					</split>
				</split>
				<split pos="right">
					<feature> 6 </feature>
					<threshold> 0.0 </threshold>
					<split pos="left">
						<feature> 7 </feature>
						<threshold> 0.66796875 </threshold>
						<split pos="left">
							<output> 1.1413723230361938 </output>
						</split>
						<split pos="right">
							<feature> 23 </feature>
							<threshold> 0.67578125 </threshold>
							<split pos="left">
								<feature> 7 </feature>
								<threshold> 0.75 </threshold>
								<split pos="left">
									<output> 1.1038665771484375 </output>
								</split>
								<split pos="right">
									<feature> 22 </feature>
									<threshold> 0.5625 </threshold>
									<split pos="left">
										<output> 1.5733449459075928 </output>
									</split>
									<split pos="right">
										<output> 1.0848785638809204 </output>
									</split>
								</split>
							</split>
							<split pos="right">
								<feature> 1 </feature>
								<threshold> 0.16992188 </threshold>
								<split pos="left">
									<output> 1.094685673713684 </output>
								</split>
								<split pos="right">
									<feature> 7 </feature>
									<threshold> 0.71875 </threshold>
									<split pos="left">
										<output> 1.0934321880340576 </output>
									</split>
									<split pos="right">
										<feature> 1 </feature>
										<threshold> 0.3515625 </threshold>
										<split pos="left">
											<output> 1.093851089477539 </output>
										</split>
										<split pos="right">
											<feature> 35 </feature>
											<threshold> 0.9375 </threshold>
											<split pos="left">
												<output> 1.0896456241607666 </output>
											</split>
											<split pos="right">
												<feature> 5 </feature>
												<threshold> 0.0390625 </threshold>
												<split pos="left">
													<output> 1.0942249298095703 </output>
												</split>
												<split pos="right">
													<output> 1.0943711996078491 </output>
												</split>
											</split>
										</split>
									</split>
								</split>
							</split>
						</split>
					</split>
					<split pos="right">
						<output> -1.97825288772583 </output>
					</split>
				</split>
			</split>
		</split>
	</tree>
	<tree id="11" weight="0.1">
		<split>
			<feature> 22 </feature>
			<threshold> 0.55859375 </threshold>
			<split pos="left">
				<output> -1.0639032125473022 </output>
			</split>
			<split pos="right">
				<feature> 1 </feature>
				<threshold> 0.076171875 </threshold>
				<split pos="left">
					<feature> 12 </feature>
					<threshold> 0.25885153 </threshold>
					<split pos="left">
						<output> 1.078630805015564 </output>
					</split>
					<split pos="right">
						<feature> 3 </feature>
						<threshold> 0.096692964 </threshold>
						<split pos="left">
							<output> 1.0765635967254639 </output>
						</split>
						<split pos="right">
							<output> 1.0808595418930054 </output>
						</split>
					</split>
				</split>
				<split pos="right">
					<feature> 11 </feature>
					<threshold> 0.99219203 </threshold>
					<split pos="left">
						<feature> 7 </feature>
						<threshold> 0.66796875 </threshold>
						<split pos="left">
							<output> 1.115286111831665 </output>
						</split>
						<split pos="right">
							<feature> 23 </feature>
							<threshold> 0.67578125 </threshold>
							<split pos="left">
								<feature> 7 </feature>
								<threshold> 0.75 </threshold>
								<split pos="left">
									<output> 1.0790435075759888 </output>
								</split>
								<split pos="right">
									<feature> 22 </feature>
									<threshold> 0.5625 </threshold>
									<split pos="left">
										<output> 1.4404985904693604 </output>
									</split>
									<split pos="right">
										<output> 1.058683156967163 </output>
									</split>
								</split>
							</split>
							<split pos="right">
								<feature> 1 </feature>
								<threshold> 0.16992188 </threshold>
								<split pos="left">
									<output> 1.0764498710632324 </output>
								</split>
								<split pos="right">
									<feature> 7 </feature>
									<threshold> 0.71875 </threshold>
									<split pos="left">
										<output> 1.0749332904815674 </output>
									</split>
									<split pos="right">
										<feature> 1 </feature>
										<threshold> 0.3515625 </threshold>
										<split pos="left">
											<output> 1.0754393339157104 </output>
										</split>
										<split pos="right">
											<feature> 35 </feature>
											<threshold> 0.9375 </threshold>
											<split pos="left">
												<output> 1.070297360420227 </output>
											</split>
											<split pos="right">
												<feature> 5 </feature>
												<threshold> 0.0390625 </threshold>
												<split pos="left">
													<output> 1.0759059190750122 </output>
												</split>
												<split pos="right">
													<output> 1.0760841369628906 </output>
												</split>
											</split>
										</split>
									</split>
								</split>
							</split>
						</split>
					</split>
					<split pos="right">
						<output> -1.943986415863037 </output>
					</split>
				</split>
			</split>
		</split>
	</tree>
	<tree id="12" weight="0.1">
		<split>
			<feature> 22 </feature>
			<threshold> 0.55859375 </threshold>
			<split pos="left">
				<output> -1.0053520202636719 </output>
			</split>
			<split pos="right">
				<feature> 1 </feature>
				<threshold> 0.076171875 </threshold>
				<split pos="left">
					<feature> 12 </feature>
					<threshold> 0.25885153 </threshold>
					<split pos="left">
						<output> 1.0632117986679077 </output>
					</split>
					<split pos="right">
						<feature> 3 </feature>
						<threshold> 0.096692964 </threshold>
						<split pos="left">
							<output> 1.0617907047271729 </output>
						</split>
						<split pos="right">
							<output> 1.0651240348815918 </output>
						</split>
					</split>
				</split>
				<split pos="right">
					<feature> 10 </feature>
					<threshold> 0.9921913 </threshold>
					<split pos="left">
						<feature> 7 </feature>
						<threshold> 0.66796875 </threshold>
						<split pos="left">
							<output> 1.093352198600769 </output>
						</split>
						<split pos="right">
							<feature> 23 </feature>
							<threshold> 0.67578125 </threshold>
							<split pos="left">
								<feature> 7 </feature>
								<threshold> 0.75 </threshold>
								<split pos="left">
									<output> 1.057990550994873 </output>
								</split>
								<split pos="right">
									<feature> 22 </feature>
									<threshold> 0.5625 </threshold>
									<split pos="left">
										<output> 1.3411705493927002 </output>
									</split>
									<split pos="right">
										<output> 1.0352039337158203 </output>
									</split>
								</split>
							</split>
							<split pos="right">
								<feature> 1 </feature>
								<threshold> 0.16992188 </threshold>
								<split pos="left">
									<output> 1.0616843700408936 </output>
								</split>
								<split pos="right">
									<feature> 7 </feature>
									<threshold> 0.71875 </threshold>
									<split pos="left">
										<output> 1.0598305463790894 </output>
									</split>
									<split pos="right">
										<feature> 1 </feature>
										<threshold> 0.3515625 </threshold>
										<split pos="left">
											<output> 1.0604325532913208 </output>
										</split>
										<split pos="right">
											<feature> 35 </feature>
											<threshold> 0.9375 </threshold>
											<split pos="left">
												<output> 1.053980827331543 </output>
											</split>
											<split pos="right">
												<feature> 5 </feature>
												<threshold> 0.0390625 </threshold>
												<split pos="left">
													<output> 1.0610531568527222 </output>
												</split>
												<split pos="right">
													<output> 1.0612592697143555 </output>
												</split>
											</split>
										</split>
									</split>
								</split>
							</split>
						</split>
					</split>
					<split pos="right">
						<output> -1.9061158895492554 </output>
					</split>
				</split>
			</split>
		</split>
	</tree>
	<tree id="13" weight="0.1">
		<split>
			<feature> 22 </feature>
			<threshold> 0.5546875 </threshold>
			<split pos="left">
				<output> -1.2002915143966675 </output>
			</split>
			<split pos="right">
				<feature> 1 </feature>
				<threshold> 0.076171875 </threshold>
				<split pos="left">
					<feature> 12 </feature>
					<threshold> 0.25885153 </threshold>
					<split pos="left">
						<output> 1.0508935451507568 </output>
					</split>
					<split pos="right">
						<output> 1.0525614023208618 </output>
					</split>
				</split>
				<split pos="right">
					<feature> 18 </feature>
					<threshold> 0.56640625 </threshold>
					<split pos="left">
						<output> 1.5746827125549316 </output>
					</split>
					<split pos="right">
						<feature> 6 </feature>
						<threshold> 0.0 </threshold>
						<split pos="left">
							<feature> 7 </feature>
							<threshold> 0.66796875 </threshold>
							<split pos="left">
								<output> 1.0922387838363647 </output>
							</split>
							<split pos="right">
								<feature> 23 </feature>
								<threshold> 0.67578125 </threshold>
								<split pos="left">
									<feature> 7 </feature>
									<threshold> 0.75 </threshold>
									<split pos="left">
										<output> 1.0407233238220215 </output>
									</split>
									<split pos="right">
										<feature> 2 </feature>
										<threshold> 0.32225722 </threshold>
										<split pos="left">
											<feature> 24 </feature>
											<threshold> 0.53515625 </threshold>
											<split pos="left">
												<output> 1.1352695226669312 </output>
											</split>
											<split pos="right">
												<output> 1.022295594215393 </output>
											</split>
										</split>
										<split pos="right">
											<output> 0.9930846691131592 </output>
										</split>
									</split>
								</split>
								<split pos="right">
									<feature> 1 </feature>
									<threshold> 0.16992188 </threshold>
									<split pos="left">
										<output> 1.050121784210205 </output>
									</split>
									<split pos="right">
										<feature> 7 </feature>
										<threshold> 0.71875 </threshold>
										<split pos="left">
											<output> 1.0478777885437012 </output>
										</split>
										<split pos="right">
											<feature> 38 </feature>
											<threshold> 0.96484375 </threshold>
											<split pos="left">
												<feature> 7 </feature>
												<threshold> 0.8125 </threshold>
												<split pos="left">
													<output> 1.047210931777954 </output>
												</split>
												<split pos="right">
													<output> 1.0457940101623535 </output>
												</split>
											</split>
											<split pos="right">
												<output> 1.049787163734436 </output>
											</split>
										</split>
									</split>
								</split>
							</split>
						</split>
						<split pos="right">
							<output> -1.8692924976348877 </output>
						</split>
					</split>
				</split>
			</split>
		</split>
	</tree>
	<tree id="14" weight="0.1">
		<split>
			<feature> 22 </feature>
			<threshold> 0.5546875 </threshold>
			<split pos="left">
				<output> -1.0248419046401978 </output>
			</split>
			<split pos="right">
				<feature> 22 </feature>
				<threshold> 0.55859375 </threshold>
				<split pos="left">
					<feature> 43 </feature>
					<threshold> 0.9609375 </threshold>
					<split pos="left">
						<output> 1.791690707206726 </output>
					</split>
					<split pos="right">
						<feature> 1 </feature>
						<threshold> 0.99609375 </threshold>
						<split pos="left">
							<feature> 36 </feature>
							<threshold> 0.88671875 </threshold>
							<split pos="left">
								<output> 1.7778762578964233 </output>
							</split>
							<split pos="right">
								<feature> 1 </feature>
								<threshold> 0.08203125 </threshold>
								<split pos="left">
									<output> 1.7961419820785522 </output>
								</split>
								<split pos="right">
									<output> 1.6297988891601562 </output>
								</split>
							</split>
						</split>
						<split pos="right">
							<output> 1.8009135723114014 </output>
						</split>
					</split>
				</split>
				<split pos="right">
					<feature> 1 </feature>
					<threshold> 0.076171875 </threshold>
					<split pos="left">
						<output> 1.0408082008361816 </output>
					</split>
					<split pos="right">
						<feature> 12 </feature>
						<threshold> 0.9921956 </threshold>
						<split pos="left">
							<feature> 7 </feature>
							<threshold> 0.66796875 </threshold>
							<split pos="left">
								<output> 1.058876872062683 </output>
							</split>
							<split pos="right">
								<feature> 25 </feature>
								<threshold> 0.67578125 </threshold>
								<split pos="left">
									<feature> 4 </feature>
									<threshold> 0.015625 </threshold>
									<split pos="left">
										<output> 0.7317734360694885 </output>
									</split>
									<split pos="right">
										<feature> 22 </feature>
										<threshold> 0.5625 </threshold>
										<split pos="left">
											<output> 1.2056775093078613 </output>
										</split>
										<split pos="right">
											<output> 0.9991760849952698 </output>
										</split>
									</split>
								</split>
								<split pos="right">
									<feature> 1 </feature>
									<threshold> 0.12890625 </threshold>
									<split pos="left">
										<output> 1.0411094427108765 </output>
									</split>
									<split pos="right">
										<feature> 1 </feature>
										<threshold> 0.36328125 </threshold>
										<split pos="left">
											<output> 1.0391137599945068 </output>
										</split>
										<split pos="right">
											<output> 1.0379562377929688 </output>
										</split>
									</split>
								</split>
							</split>
						</split>
						<split pos="right">
							<output> -1.1189322471618652 </output>
						</split>
					</split>
				</split>
			</split>
		</split>
	</tree>
	<tree id="15" weight="0.1">
		<split>
			<feature> 22 </feature>
			<threshold> 0.5546875 </threshold>
			<split pos="left">
				<output> -1.014238953590393 </output>
			</split>
			<split pos="right">
				<feature> 22 </feature>
				<threshold> 0.55859375 </threshold>
				<split pos="left">
					<feature> 43 </feature>
					<threshold> 0.9609375 </threshold>
					<split pos="left">
						<output> 1.5973589420318604 </output>
					</split>
					<split pos="right">
						<feature> 1 </feature>
						<threshold> 0.99609375 </threshold>
						<split pos="left">
							<feature> 36 </feature>
							<threshold> 0.88671875 </threshold>
							<split pos="left">
								<feature> 1 </feature>
								<threshold> 0.01171875 </threshold>
								<split pos="left">
									<output> 1.6006951332092285 </output>
								</split>
								<split pos="right">
									<output> 1.5796993970870972 </output>
								</split>
							</split>
							<split pos="right">
								<feature> 1 </feature>
								<threshold> 0.111328125 </threshold>
								<split pos="left">
									<output> 1.600450873374939 </output>
								</split>
								<split pos="right">
									<output> 1.4874684810638428 </output>
								</split>
							</split>
						</split>
						<split pos="right">
							<output> 1.6037617921829224 </output>
						</split>
					</split>
				</split>
				<split pos="right">
					<feature> 1 </feature>
					<threshold> 0.076171875 </threshold>
					<split pos="left">
						<output> 1.0325090885162354 </output>
					</split>
					<split pos="right">
						<feature> 4 </feature>
						<threshold> 0.9921875 </threshold>
						<split pos="left">
							<feature> 27 </feature>
							<threshold> 0.67578125 </threshold>
							<split pos="left">
								<feature> 7 </feature>
								<threshold> 0.67578125 </threshold>
								<split pos="left">
									<output> 1.0438365936279297 </output>
								</split>
								<split pos="right">
									<feature> 2 </feature>
									<threshold> 0.26785 </threshold>
									<split pos="left">
										<output> 1.0085089206695557 </output>
									</split>
									<split pos="right">
										<output> 0.9629214406013489 </output>
									</split>
								</split>
							</split>
							<split pos="right">
								<feature> 1 </feature>
								<threshold> 0.14648438 </threshold>
								<split pos="left">
									<output> 1.0349589586257935 </output>
								</split>
								<split pos="right">
									<feature> 5 </feature>
									<threshold> 0.04296875 </threshold>
									<split pos="left">
										<output> 1.0324691534042358 </output>
									</split>
									<split pos="right">
										<output> 1.0317792892456055 </output>
									</split>
								</split>
							</split>
						</split>
						<split pos="right">
							<output> -1.097080945968628 </output>
						</split>
					</split>
				</split>
			</split>
		</split>
	</tree>
	<tree id="16" weight="0.1">
		<split>
			<feature> 22 </feature>
			<threshold> 0.5546875 </threshold>
			<split pos="left">
				<output> -1.0219770669937134 </output>
			</split>
			<split pos="right">
				<feature> 22 </feature>
				<threshold> 0.55859375 </threshold>
				<split pos="left">
					<feature> 43 </feature>
					<threshold> 0.9609375 </threshold>
					<split pos="left">
						<output> 1.4600608348846436 </output>
					</split>
					<split pos="right">
						<feature> 1 </feature>
						<threshold> 0.99609375 </threshold>
						<split pos="left">
							<feature> 36 </feature>
							<threshold> 0.88671875 </threshold>
							<split pos="left">
								<feature> 1 </feature>
								<threshold> 0.01171875 </threshold>
								<split pos="left">
									<output> 1.462463140487671 </output>
								</split>
								<split pos="right">
									<output> 1.440364956855774 </output>
								</split>
							</split>
							<split pos="right">
								<feature> 1 </feature>
								<threshold> 0.1171875 </threshold>
								<split pos="left">
									<output> 1.4622997045516968 </output>
								</split>
								<split pos="right">
									<output> 1.3825229406356812 </output>
								</split>
							</split>
						</split>
						<split pos="right">
							<output> 1.4646950960159302 </output>
						</split>
					</split>
				</split>
				<split pos="right">
					<feature> 1 </feature>
					<threshold> 0.076171875 </threshold>
					<split pos="left">
						<output> 1.0255205631256104 </output>
					</split>
					<split pos="right">
						<feature> 5 </feature>
						<threshold> 0.98828125 </threshold>
						<split pos="left">
							<feature> 27 </feature>
							<threshold> 0.67578125 </threshold>
							<split pos="left">
								<feature> 7 </feature>
								<threshold> 0.67578125 </threshold>
								<split pos="left">
									<output> 1.0327980518341064 </output>
								</split>
								<split pos="right">
									<feature> 2 </feature>
									<threshold> 0.26785 </threshold>
									<split pos="left">
										<output> 0.993320107460022 </output>
									</split>
									<split pos="right">
										<output> 0.9357429146766663 </output>
									</split>
								</split>
							</split>
							<split pos="right">
								<feature> 1 </feature>
								<threshold> 0.14648438 </threshold>
								<split pos="left">
									<output> 1.029388427734375 </output>
								</split>
								<split pos="right">
									<feature> 5 </feature>
									<threshold> 0.04296875 </threshold>
									<split pos="left">
										<output> 1.026469349861145 </output>
									</split>
									<split pos="right">
										<output> 1.0259429216384888 </output>
									</split>
								</split>
							</split>
						</split>
						<split pos="right">
							<output> -1.081152081489563 </output>
						</split>
					</split>
				</split>
			</split>
		</split>
	</tree>
	<tree id="17" weight="0.1">
		<split>
			<feature> 22 </feature>
			<threshold> 0.5546875 </threshold>
			<split pos="left">
				<output> -0.999454140663147 </output>
			</split>
			<split pos="right">
				<feature> 22 </feature>
				<threshold> 0.55859375 </threshold>
				<split pos="left">
					<feature> 43 </feature>
					<threshold> 0.9609375 </threshold>
					<split pos="left">
						<output> 1.3589401245117188 </output>
					</split>
					<split pos="right">
						<feature> 1 </feature>
						<threshold> 0.99609375 </threshold>
						<split pos="left">
							<feature> 36 </feature>
							<threshold> 0.88671875 </threshold>
							<split pos="left">
								<output> 1.339040756225586 </output>
							</split>
							<split pos="right">
								<feature> 1 </feature>
								<threshold> 0.111328125 </threshold>
								<split pos="left">
									<output> 1.3606064319610596 </output>
								</split>
								<split pos="right">
									<output> 1.30263352394104 </output>
								</split>
							</split>
						</split>
						<split pos="right">
							<output> 1.362388253211975 </output>
						</split>
					</split>
				</split>
				<split pos="right">
					<feature> 1 </feature>
					<threshold> 0.076171875 </threshold>
					<split pos="left">
						<output> 1.0196269750595093 </output>
					</split>
					<split pos="right">
						<feature> 9 </feature>
						<threshold> 0.9960928 </threshold>
						<split pos="left">
							<feature> 27 </feature>
							<threshold> 0.67578125 </threshold>
							<split pos="left">
								<feature> 7 </feature>
								<threshold> 0.67578125 </threshold>
								<split pos="left">
									<output> 1.0230207443237305 </output>
								</split>
								<split pos="right">
									<feature> 4 </feature>
									<threshold> 0.015625 </threshold>
									<split pos="left">
										<output> 0.5449039340019226 </output>
									</split>
									<split pos="right">
										<feature> 2 </feature>
										<threshold> 0.26785 </threshold>
										<split pos="left">
											<output> 0.990263819694519 </output>
										</split>
										<split pos="right">
											<output> 0.928674578666687 </output>
										</split>
									</split>
								</split>
							</split>
							<split pos="right">
								<feature> 1 </feature>
								<threshold> 0.14648438 </threshold>
								<split pos="left">
									<output> 1.0250418186187744 </output>
								</split>
								<split pos="right">
									<feature> 5 </feature>
									<threshold> 0.04296875 </threshold>
									<split pos="left">
										<output> 1.0215805768966675 </output>
									</split>
									<split pos="right">
										<output> 1.0207353830337524 </output>
									</split>
								</split>
							</split>
						</split>
						<split pos="right">
							<output> -1.0674152374267578 </output>
						</split>
					</split>
				</split>
			</split>
		</split>
	</tree>
	<tree id="18" weight="0.1">
		<split>
			<feature> 22 </feature>
			<threshold> 0.5546875 </threshold>
			<split pos="left">
				<output> -0.9900833964347839 </output>
			</split>
			<split pos="right">
				<feature> 22 </feature>
				<threshold> 0.55859375 </threshold>
				<split pos="left">
					<feature> 43 </feature>
					<threshold> 0.9609375 </threshold>
					<split pos="left">
						<output> 1.2835296392440796 </output>
					</split>
					<split pos="right">
						<feature> 1 </feature>
						<threshold> 0.99609375 </threshold>
						<split pos="left">
							<feature> 36 </feature>
							<threshold> 0.88671875 </threshold>
							<split pos="left">
								<output> 1.2604714632034302 </output>
							</split>
							<split pos="right">
								<feature> 1 </feature>
								<threshold> 0.08203125 </threshold>
								<split pos="left">
									<output> 1.2847986221313477 </output>
								</split>
								<split pos="right">
									<output> 1.24158775806427 </output>
								</split>
							</split>
						</split>
						<split pos="right">
							<output> 1.286154866218567 </output>
						</split>
					</split>
				</split>
				<split pos="right">
					<feature> 1 </feature>
					<threshold> 0.076171875 </threshold>
					<split pos="left">
						<output> 1.0146005153656006 </output>
					</split>
					<split pos="right">
						<feature> 4 </feature>
						<threshold> 0.9921875 </threshold>
						<split pos="left">
							<feature> 27 </feature>
							<threshold> 0.67578125 </threshold>
							<split pos="left">
								<feature> 7 </feature>
								<threshold> 0.67578125 </threshold>
								<split pos="left">
									<output> 1.014194130897522 </output>
								</split>
								<split pos="right">
									<feature> 4 </feature>
									<threshold> 0.015625 </threshold>
									<split pos="left">
										<output> 0.48914676904678345 </output>
									</split>
									<split pos="right">
										<feature> 2 </feature>
										<threshold> 0.26785 </threshold>
										<split pos="left">
											<output> 0.9779741764068604 </output>
										</split>
										<split pos="right">
											<output> 0.9040732383728027 </output>
										</split>
									</split>
								</split>
							</split>
							<split pos="right">
								<feature> 1 </feature>
								<threshold> 0.14648438 </threshold>
								<split pos="left">
									<output> 1.0217080116271973 </output>
								</split>
								<split pos="right">
									<feature> 5 </feature>
									<threshold> 0.04296875 </threshold>
									<split pos="left">
										<output> 1.0177747011184692 </output>
									</split>
									<split pos="right">
										<output> 1.0163638591766357 </output>
									</split>
								</split>
							</split>
						</split>
						<split pos="right">
							<output> -1.0557836294174194 </output>
						</split>
					</split>
				</split>
			</split>
		</split>
	</tree>
	<tree id="19" weight="0.1">
		<split>
			<feature> 22 </feature>
			<threshold> 0.5546875 </threshold>
			<split pos="left">
				<output> -0.9786245226860046 </output>
			</split>
			<split pos="right">
				<feature> 22 </feature>
				<threshold> 0.55859375 </threshold>
				<split pos="left">
					<feature> 43 </feature>
					<threshold> 0.9609375 </threshold>
					<split pos="left">
						<output> 1.225869059562683 </output>
					</split>
					<split pos="right">
						<feature> 1 </feature>
						<threshold> 0.99609375 </threshold>
						<split pos="left">
							<feature> 36 </feature>
							<threshold> 0.88671875 </threshold>
							<split pos="left">
								<output> 1.1988953351974487 </output>
							</split>
							<split pos="right">
								<feature> 1 </feature>
								<threshold> 0.09375 </threshold>
								<split pos="left">
									<output> 1.2268513441085815 </output>
								</split>
								<split pos="right">
									<output> 1.1939690113067627 </output>
								</split>
							</split>
						</split>
						<split pos="right">
							<output> 1.2279008626937866 </output>
						</split>
					</split>
				</split>
				<split pos="right">
					<feature> 1 </feature>
					<threshold> 0.076171875 </threshold>
					<split pos="left">
						<output> 1.010188341140747 </output>
					</split>
					<split pos="right">
						<feature> 10 </feature>
						<threshold> 0.9921913 </threshold>
						<split pos="left">
							<feature> 27 </feature>
							<threshold> 0.67578125 </threshold>
							<split pos="left">
								<feature> 7 </feature>
								<threshold> 0.67578125 </threshold>
								<split pos="left">
									<output> 1.0059322118759155 </output>
								</split>
								<split pos="right">
									<feature> 4 </feature>
									<threshold> 0.015625 </threshold>
									<split pos="left">
										<output> 0.4361145794391632 </output>
									</split>
									<split pos="right">
										<feature> 2 </feature>
										<threshold> 0.26785 </threshold>
										<split pos="left">
											<output> 0.965158998966217 </output>
										</split>
										<split pos="right">
											<output> 0.8776136636734009 </output>
										</split>
									</split>
								</split>
							</split>
							<split pos="right">
								<feature> 1 </feature>
								<threshold> 0.14648438 </threshold>
								<split pos="left">
									<output> 1.0192108154296875 </output>
								</split>
								<split pos="right">
									<feature> 5 </feature>
									<threshold> 0.04296875 </threshold>
									<split pos="left">
										<output> 1.0150429010391235 </output>
									</split>
									<split pos="right">
										<output> 1.012492060661316 </output>
									</split>
								</split>
							</split>
						</split>
						<split pos="right">
							<output> -1.0460951328277588 </output>
						</split>
					</split>
				</split>
			</split>
		</split>
	</tree>
	<tree id="20" weight="0.1">
		<split>
			<feature> 22 </feature>
			<threshold> 0.5546875 </threshold>
			<split pos="left">
				<output> -1.1281726360321045 </output>
			</split>
			<split pos="right">
				<feature> 22 </feature>
				<threshold> 0.55859375 </threshold>
				<split pos="left">
					<feature> 43 </feature>
					<threshold> 0.9609375 </threshold>
					<split pos="left">
						<output> 1.1811827421188354 </output>
					</split>
					<split pos="right">
						<feature> 1 </feature>
						<threshold> 0.99609375 </threshold>
						<split pos="left">
							<feature> 36 </feature>
							<threshold> 0.88671875 </threshold>
							<split pos="left">
								<output> 1.1494550704956055 </output>
							</split>
							<split pos="right">
								<feature> 1 </feature>
								<threshold> 0.08203125 </threshold>
								<split pos="left">
									<output> 1.181952953338623 </output>
								</split>
								<split pos="right">
									<output> 1.156456470489502 </output>
								</split>
							</split>
						</split>
						<split pos="right">
							<output> 1.1827754974365234 </output>
						</split>
					</split>
				</split>
				<split pos="right">
					<feature> 1 </feature>
					<threshold> 0.076171875 </threshold>
					<split pos="left">
						<output> 1.0062061548233032 </output>
					</split>
					<split pos="right">
						<feature> 6 </feature>
						<threshold> 0.0 </threshold>
						<split pos="left">
							<feature> 27 </feature>
							<threshold> 0.67578125 </threshold>
							<split pos="left">
								<feature> 7 </feature>
								<threshold> 0.67578125 </threshold>
								<split pos="left">
									<output> 0.9979431629180908 </output>
								</split>
								<split pos="right">
									<feature> 4 </feature>
									<threshold> 0.015625 </threshold>
									<split pos="left">
										<output> 0.38009005784988403 </output>
									</split>
									<split pos="right">
										<feature> 2 </feature>
										<threshold> 0.26785 </threshold>
										<split pos="left">
											<output> 0.9514296054840088 </output>
										</split>
										<split pos="right">
											<output> 0.848641574382782 </output>
										</split>
									</split>
								</split>
							</split>
							<split pos="right">
								<feature> 1 </feature>
								<threshold> 0.14648438 </threshold>
								<split pos="left">
									<output> 1.017408013343811 </output>
								</split>
								<split pos="right">
									<feature> 5 </feature>
									<threshold> 0.04296875 </threshold>
									<split pos="left">
										<output> 1.01250422000885 </output>
									</split>
									<split pos="right">
										<output> 1.0091309547424316 </output>
									</split>
								</split>
							</split>
						</split>
						<split pos="right">
							<output> -1.0381301641464233 </output>
						</split>
					</split>
				</split>
			</split>
		</split>
	</tree>
	<tree id="21" weight="0.1">
		<split>
			<feature> 22 </feature>
			<threshold> 0.5546875 </threshold>
			<split pos="left">
				<output> -0.9556893110275269 </output>
			</split>
			<split pos="right">
				<feature> 22 </feature>
				<threshold> 0.55859375 </threshold>
				<split pos="left">
					<feature> 43 </feature>
					<threshold> 0.9609375 </threshold>
					<split pos="left">
						<output> 1.1438212394714355 </output>
					</split>
					<split pos="right">
						<feature> 1 </feature>
						<threshold> 0.99609375 </threshold>
						<split pos="left">
							<feature> 36 </feature>
							<threshold> 0.88671875 </threshold>
							<split pos="left">
								<output> 1.1057854890823364 </output>
							</split>
							<split pos="right">
								<feature> 1 </feature>
								<threshold> 0.08203125 </threshold>
								<split pos="left">
									<output> 1.1444215774536133 </output>
								</split>
								<split pos="right">
									<output> 1.1246209144592285 </output>
								</split>
							</split>
						</split>
						<split pos="right">
							<output> 1.1450625658035278 </output>
						</split>
					</split>
				</split>
				<split pos="right">
					<feature> 1 </feature>
					<threshold> 0.076171875 </threshold>
					<split pos="left">
						<output> 1.002364993095398 </output>
					</split>
					<split pos="right">
						<feature> 12 </feature>
						<threshold> 0.9921956 </threshold>
						<split pos="left">
							<feature> 27 </feature>
							<threshold> 0.67578125 </threshold>
							<split pos="left">
								<feature> 7 </feature>
								<threshold> 0.67578125 </threshold>
								<split pos="left">
									<output> 0.9892638325691223 </output>
								</split>
								<split pos="right">
									<feature> 4 </feature>
									<threshold> 0.015625 </threshold>
									<split pos="left">
										<output> 0.3170720338821411 </output>
									</split>
									<split pos="right">
										<feature> 2 </feature>
										<threshold> 0.26785 </threshold>
										<split pos="left">
											<output> 0.9350302815437317 </output>
										</split>
										<split pos="right">
											<output> 0.8147746324539185 </output>
										</split>
									</split>
								</split>
							</split>
							<split pos="right">
								<feature> 1 </feature>
								<threshold> 0.14648438 </threshold>
								<split pos="left">
									<output> 1.015852928161621 </output>
								</split>
								<split pos="right">
									<feature> 3 </feature>
									<threshold> 0.092493355 </threshold>
									<split pos="left">
										<output> 1.0693473815917969 </output>
									</split>
									<split pos="right">
										<output> 1.0010210275650024 </output>
									</split>
								</split>
							</split>
						</split>
						<split pos="right">
							<output> -1.0314652919769287 </output>
						</split>
					</split>
				</split>
			</split>
		</split>
	</tree>
	<tree id="22" weight="0.1">
		<split>
			<feature> 22 </feature>
			<threshold> 0.5546875 </threshold>
			<split pos="left">
				<output> -0.9335761666297913 </output>
			</split>
			<split pos="right">
				<feature> 22 </feature>
				<threshold> 0.55859375 </threshold>
				<split pos="left">
					<feature> 43 </feature>
					<threshold> 0.9609375 </threshold>
					<split pos="left">
						<output> 1.1165850162506104 </output>
					</split>
					<split pos="right">
						<feature> 1 </feature>
						<threshold> 0.99609375 </threshold>
						<split pos="left">
							<feature> 36 </feature>
							<threshold> 0.88671875 </threshold>
							<split pos="left">
								<output> 1.0714834928512573 </output>
							</split>
							<split pos="right">
								<feature> 1 </feature>
								<threshold> 0.087890625 </threshold>
								<split pos="left">
									<output> 1.1170645952224731 </output>
								</split>
								<split pos="right">
									<output> 1.1011345386505127 </output>
								</split>
							</split>
						</split>
						<split pos="right">
							<output> 1.1175765991210938 </output>
						</split>
					</split>
				</split>
				<split pos="right">
					<feature> 1 </feature>
					<threshold> 0.076171875 </threshold>
					<split pos="left">
						<output> 0.998406708240509 </output>
					</split>
					<split pos="right">
						<feature> 6 </feature>
						<threshold> 0.0 </threshold>
						<split pos="left">
							<feature> 27 </feature>
							<threshold> 0.67578125 </threshold>
							<split pos="left">
								<feature> 7 </feature>
								<threshold> 0.68359375 </threshold>
								<split pos="left">
									<output> 0.9769561290740967 </output>
								</split>
								<split pos="right">
									<feature> 2 </feature>
									<threshold> 0.27622035 </threshold>
									<split pos="left">
										<output> 0.8938248157501221 </output>
									</split>
									<split pos="right">
										<output> 0.7179539799690247 </output>
									</split>
								</split>
							</split>
							<split pos="right">
								<feature> 1 </feature>
								<threshold> 0.1640625 </threshold>
								<split pos="left">
									<output> 1.0140645503997803 </output>
								</split>
								<split pos="right">
									<feature> 3 </feature>
									<threshold> 0.092493355 </threshold>
									<split pos="left">
										<output> 1.0822638273239136 </output>
									</split>
									<split pos="right">
										<feature> 5 </feature>
										<threshold> 0.04296875 </threshold>
										<split pos="left">
											<output> 0.9952989220619202 </output>
										</split>
										<split pos="right">
											<output> 0.9969679713249207 </output>
										</split>
									</split>
								</split>
							</split>
						</split>
						<split pos="right">
							<output> -1.0259705781936646 </output>
						</split>
					</split>
				</split>
			</split>
		</split>
	</tree>
	<tree id="23" weight="0.1">
		<split>
			<feature> 22 </feature>
			<threshold> 0.55078125 </threshold>
			<split pos="left">
				<output> -0.9247879981994629 </output>
			</split>
			<split pos="right">
				<feature> 7 </feature>
				<threshold> 0.609375 </threshold>
				<split pos="left">
					<feature> 1 </feature>
					<threshold> 0.08203125 </threshold>
					<split pos="left">
						<output> 1.0910329818725586 </output>
					</split>
					<split pos="right">
						<feature> 2 </feature>
						<threshold> 0.50640464 </threshold>
						<split pos="left">
							<output> 1.1029611825942993 </output>
						</split>
						<split pos="right">
							<output> 1.0554934740066528 </output>
						</split>
					</split>
				</split>
				<split pos="right">
					<feature> 1 </feature>
					<threshold> 0.076171875 </threshold>
					<split pos="left">
						<feature> 12 </feature>
						<threshold> 0.25885153 </threshold>
						<split pos="left">
							<output> 0.9994136095046997 </output>
						</split>
						<split pos="right">
							<output> 1.0001096725463867 </output>
						</split>
					</split>
					<split pos="right">
						<feature> 10 </feature>
						<threshold> 0.9921913 </threshold>
						<split pos="left">
							<feature> 43 </feature>
							<threshold> 0.9609375 </threshold>
							<split pos="left">
								<feature> 22 </feature>
								<threshold> 0.55859375 </threshold>
								<split pos="left">
									<output> 1.094974160194397 </output>
								</split>
								<split pos="right">
									<output> 0.6292470693588257 </output>
								</split>
							</split>
							<split pos="right">
								<feature> 21 </feature>
								<threshold> 0.56640625 </threshold>
								<split pos="left">
									<output> 1.0940189361572266 </output>
								</split>
								<split pos="right">
									<feature> 27 </feature>
									<threshold> 0.67578125 </threshold>
									<split pos="left">
										<feature> 22 </feature>
										<threshold> 0.5625 </threshold>
										<split pos="left">
											<feature> 5 </feature>
											<threshold> 0.53515625 </threshold>
											<split pos="left">
												<output> 1.0044032335281372 </output>
											</split>
											<split pos="right">
												<output> 1.0904829502105713 </output>
											</split>
										</split>
										<split pos="right">
											<output> 0.7936318516731262 </output>
										</split>
									</split>
									<split pos="right">
										<feature> 1 </feature>
										<threshold> 0.1640625 </threshold>
										<split pos="left">
											<output> 1.0136666297912598 </output>
										</split>
										<split pos="right">
											<output> 1.001177430152893 </output>
										</split>
									</split>
								</split>
							</split>
						</split>
						<split pos="right">
							<output> -1.021417260169983 </output>
						</split>
					</split>
				</split>
			</split>
		</split>
	</tree>
	<tree id="24" weight="0.1">
		<split>
			<feature> 22 </feature>
			<threshold> 0.55078125 </threshold>
			<split pos="left">
				<output> -1.0130791664123535 </output>
			</split>
			<split pos="right">
				<feature> 23 </feature>
				<threshold> 0.5546875 </threshold>
				<split pos="left">
					<feature> 7 </feature>
					<threshold> 0.6015625 </threshold>
					<split pos="left">
						<feature> 10 </feature>
						<threshold> 0.043638673 </threshold>
						<split pos="left">
							<output> 1.8164262771606445 </output>
						</split>
						<split pos="right">
							<feature> 1 </feature>
							<threshold> 0.13476562 </threshold>
							<split pos="left">
								<output> 1.8163843154907227 </output>
							</split>
							<split pos="right">
								<output> 1.7679266929626465 </output>
							</split>
						</split>
					</split>
					<split pos="right">
						<feature> 24 </feature>
						<threshold> 0.421875 </threshold>
						<split pos="left">
							<output> 1.8244781494140625 </output>
						</split>
						<split pos="right">
							<feature> 1 </feature>
							<threshold> 0.9785156 </threshold>
							<split pos="left">
								<feature> 3 </feature>
								<threshold> 0.40746456 </threshold>
								<split pos="left">
									<feature> 27 </feature>
									<threshold> 0.44921875 </threshold>
									<split pos="left">
										<output> 1.8198212385177612 </output>
									</split>
									<split pos="right">
										<output> 1.813423752784729 </output>
									</split>
								</split>
								<split pos="right">
									<feature> 4 </feature>
									<threshold> 0.6640625 </threshold>
									<split pos="left">
										<feature> 5 </feature>
										<threshold> 0.33984375 </threshold>
										<split pos="left">
											<output> 1.822124719619751 </output>
										</split>
										<split pos="right">
											<output> 1.8244781494140625 </output>
										</split>
									</split>
									<split pos="right">
										<output> 1.8248608112335205 </output>
									</split>
								</split>
							</split>
							<split pos="right">
								<feature> 5 </feature>
								<threshold> 0.0625 </threshold>
								<split pos="left">
									<output> 1.8245090246200562 </output>
								</split>
								<split pos="right">
									<output> 1.8231648206710815 </output>
								</split>
							</split>
						</split>
					</split>
				</split>
				<split pos="right">
					<feature> 22 </feature>
					<threshold> 0.55859375 </threshold>
					<split pos="left">
						<feature> 43 </feature>
						<threshold> 0.9609375 </threshold>
						<split pos="left">
							<output> 1.0776047706604004 </output>
						</split>
						<split pos="right">
							<output> 1.1369857788085938 </output>
						</split>
					</split>
					<split pos="right">
						<output> 0.9205776453018188 </output>
					</split>
				</split>
			</split>
		</split>
	</tree>
	<tree id="25" weight="0.1">
		<split>
			<feature> 22 </feature>
			<threshold> 0.55078125 </threshold>
			<split pos="left">
				<output> -0.9909179210662842 </output>
			</split>
			<split pos="right">
				<feature> 23 </feature>
				<threshold> 0.5546875 </threshold>
				<split pos="left">
					<feature> 7 </feature>
					<threshold> 0.6015625 </threshold>
					<split pos="left">
						<feature> 10 </feature>
						<threshold> 0.043638673 </threshold>
						<split pos="left">
							<output> 1.6152243614196777 </output>
						</split>
						<split pos="right">
							<feature> 1 </feature>
							<threshold> 0.13476562 </threshold>
							<split pos="left">
								<output> 1.6151959896087646 </output>
							</split>
							<split pos="right">
								<output> 1.5838218927383423 </output>
							</split>
						</split>
					</split>
					<split pos="right">
						<feature> 24 </feature>
						<threshold> 0.421875 </threshold>
						<split pos="left">
							<output> 1.6207925081253052 </output>
						</split>
						<split pos="right">
							<feature> 1 </feature>
							<threshold> 0.9785156 </threshold>
							<split pos="left">
								<feature> 3 </feature>
								<threshold> 0.40746456 </threshold>
								<split pos="left">
									<feature> 27 </feature>
									<threshold> 0.44921875 </threshold>
									<split pos="left">
										<output> 1.6164473295211792 </output>
									</split>
									<split pos="right">
										<output> 1.6103334426879883 </output>
									</split>
								</split>
								<split pos="right">
									<feature> 11 </feature>
									<threshold> 0.5902535 </threshold>
									<split pos="left">
										<feature> 5 </feature>
										<threshold> 0.33984375 </threshold>
										<split pos="left">
											<output> 1.6195825338363647 </output>
										</split>
										<split pos="right">
											<output> 1.6207925081253052 </output>
										</split>
									</split>
									<split pos="right">
										<output> 1.6210565567016602 </output>
									</split>
								</split>
							</split>
							<split pos="right">
								<feature> 5 </feature>
								<threshold> 0.1640625 </threshold>
								<split pos="left">
									<output> 1.620813250541687 </output>
								</split>
								<split pos="right">
									<output> 1.6197401285171509 </output>
								</split>
							</split>
						</split>
					</split>
				</split>
				<split pos="right">
					<feature> 22 </feature>
					<threshold> 0.55859375 </threshold>
					<split pos="left">
						<feature> 43 </feature>
						<threshold> 0.9609375 </threshold>
						<split pos="left">
							<output> 1.0629637241363525 </output>
						</split>
						<split pos="right">
							<output> 1.1087125539779663 </output>
						</split>
					</split>
					<split pos="right">
						<output> 0.8997380137443542 </output>
					</split>
				</split>
			</split>
		</split>
	</tree>
	<tree id="26" weight="0.1">
		<split>
			<feature> 22 </feature>
			<threshold> 0.55078125 </threshold>
			<split pos="left">
				<output> -0.9534460306167603 </output>
			</split>
			<split pos="right">
				<feature> 23 </feature>
				<threshold> 0.5546875 </threshold>
				<split pos="left">
					<feature> 7 </feature>
					<threshold> 0.6015625 </threshold>
					<split pos="left">
						<feature> 10 </feature>
						<threshold> 0.043638673 </threshold>
						<split pos="left">
							<output> 1.4740790128707886 </output>
						</split>
						<split pos="right">
							<feature> 1 </feature>
							<threshold> 0.13476562 </threshold>
							<split pos="left">
								<output> 1.474058747291565 </output>
							</split>
							<split pos="right">
								<output> 1.4528404474258423 </output>
							</split>
						</split>
					</split>
					<split pos="right">
						<feature> 24 </feature>
						<threshold> 0.421875 </threshold>
						<split pos="left">
							<output> 1.478103518486023 </output>
						</split>
						<split pos="right">
							<feature> 1 </feature>
							<threshold> 0.9785156 </threshold>
							<split pos="left">
								<feature> 3 </feature>
								<threshold> 0.40746456 </threshold>
								<split pos="left">
									<feature> 27 </feature>
									<threshold> 0.44921875 </threshold>
									<split pos="left">
										<output> 1.473717212677002 </output>
									</split>
									<split pos="right">
										<output> 1.4674193859100342 </output>
									</split>
								</split>
								<split pos="right">
									<feature> 17 </feature>
									<threshold> 0.66453123 </threshold>
									<split pos="left">
										<feature> 5 </feature>
										<threshold> 0.33984375 </threshold>
										<split pos="left">
											<output> 1.4776767492294312 </output>
										</split>
										<split pos="right">
											<output> 1.478103518486023 </output>
										</split>
									</split>
									<split pos="right">
										<output> 1.4782938957214355 </output>
									</split>
								</split>
							</split>
							<split pos="right">
								<feature> 5 </feature>
								<threshold> 0.22265625 </threshold>
								<split pos="left">
									<output> 1.4781183004379272 </output>
								</split>
								<split pos="right">
									<output> 1.4771747589111328 </output>
								</split>
							</split>
						</split>
					</split>
				</split>
				<split pos="right">
					<feature> 22 </feature>
					<threshold> 0.55859375 </threshold>
					<split pos="left">
						<feature> 43 </feature>
						<threshold> 0.9609375 </threshold>
						<split pos="left">
							<output> 1.0512733459472656 </output>
						</split>
						<split pos="right">
							<output> 1.0818243026733398 </output>
						</split>
					</split>
					<split pos="right">
						<output> 0.8793461322784424 </output>
					</split>
				</split>
			</split>
		</split>
	</tree>
	<tree id="27" weight="0.1">
		<split>
			<feature> 22 </feature>
			<threshold> 0.55078125 </threshold>
			<split pos="left">
				<output> -0.9246239066123962 </output>
			</split>
			<split pos="right">
				<feature> 23 </feature>
				<threshold> 0.5546875 </threshold>
				<split pos="left">
					<feature> 7 </feature>
					<threshold> 0.6015625 </threshold>
					<split pos="left">
						<feature> 10 </feature>
						<threshold> 0.043638673 </threshold>
						<split pos="left">
							<output> 1.371898889541626 </output>
						</split>
						<split pos="right">
							<feature> 1 </feature>
							<threshold> 0.13476562 </threshold>
							<split pos="left">
								<output> 1.3718841075897217 </output>
							</split>
							<split pos="right">
								<output> 1.3570713996887207 </output>
							</split>
						</split>
					</split>
					<split pos="right">
						<feature> 24 </feature>
						<threshold> 0.421875 </threshold>
						<split pos="left">
							<output> 1.3749054670333862 </output>
						</split>
						<split pos="right">
							<feature> 1 </feature>
							<threshold> 0.9785156 </threshold>
							<split pos="left">
								<feature> 3 </feature>
								<threshold> 0.40746456 </threshold>
								<split pos="left">
									<feature> 27 </feature>
									<threshold> 0.44921875 </threshold>
									<split pos="left">
										<output> 1.3702369928359985 </output>
									</split>
									<split pos="right">
										<output> 1.3634209632873535 </output>
									</split>
								</split>
								<split pos="right">
									<feature> 1 </feature>
									<threshold> 0.05859375 </threshold>
									<split pos="left">
										<output> 1.3750473260879517 </output>
									</split>
									<split pos="right">
										<feature> 5 </feature>
										<threshold> 0.47265625 </threshold>
										<split pos="left">
											<output> 1.3750739097595215 </output>
										</split>
										<split pos="right">
											<output> 1.3749054670333862 </output>
										</split>
									</split>
								</split>
							</split>
							<split pos="right">
								<feature> 4 </feature>
								<threshold> 0.375 </threshold>
								<split pos="left">
									<output> 1.3740164041519165 </output>
								</split>
								<split pos="right">
									<output> 1.3749160766601562 </output>
								</split>
							</split>
						</split>
					</split>
				</split>
				<split pos="right">
					<feature> 22 </feature>
					<threshold> 0.55859375 </threshold>
					<split pos="left">
						<feature> 43 </feature>
						<threshold> 0.9609375 </threshold>
						<split pos="left">
							<output> 1.041959285736084 </output>
						</split>
						<split pos="right">
							<output> 1.0560249090194702 </output>
						</split>
					</split>
					<split pos="right">
						<output> 0.8567124009132385 </output>
					</split>
				</split>
			</split>
		</split>
	</tree>
	<tree id="28" weight="0.1">
		<split>
			<feature> 22 </feature>
			<threshold> 0.55078125 </threshold>
			<split pos="left">
				<output> -0.8815479874610901 </output>
			</split>
			<split pos="right">
				<feature> 23 </feature>
				<threshold> 0.5546875 </threshold>
				<split pos="left">
					<feature> 7 </feature>
					<threshold> 0.6015625 </threshold>
					<split pos="left">
						<feature> 10 </feature>
						<threshold> 0.043638673 </threshold>
						<split pos="left">
							<output> 1.2955889701843262 </output>
						</split>
						<split pos="right">
							<feature> 1 </feature>
							<threshold> 0.13476562 </threshold>
							<split pos="left">
								<output> 1.2955780029296875 </output>
							</split>
							<split pos="right">
								<output> 1.2850350141525269 </output>
							</split>
						</split>
					</split>
					<split pos="right">
						<feature> 24 </feature>
						<threshold> 0.421875 </threshold>
						<split pos="left">
							<output> 1.297889232635498 </output>
						</split>
						<split pos="right">
							<feature> 1 </feature>
							<threshold> 0.984375 </threshold>
							<split pos="left">
								<feature> 3 </feature>
								<threshold> 0.40746456 </threshold>
								<split pos="left">
									<feature> 27 </feature>
									<threshold> 0.44921875 </threshold>
									<split pos="left">
										<output> 1.2927385568618774 </output>
									</split>
									<split pos="right">
										<output> 1.2851186990737915 </output>
									</split>
								</split>
								<split pos="right">
									<feature> 9 </feature>
									<threshold> 0.62120724 </threshold>
									<split pos="left">
										<feature> 5 </feature>
										<threshold> 0.33984375 </threshold>
										<split pos="left">
											<output> 1.298559308052063 </output>
										</split>
										<split pos="right">
											<output> 1.2978893518447876 </output>
										</split>
									</split>
									<split pos="right">
										<output> 1.2979977130889893 </output>
									</split>
								</split>
							</split>
							<split pos="right">
								<feature> 10 </feature>
								<threshold> 0.43398964 </threshold>
								<split pos="left">
									<output> 1.2969809770584106 </output>
								</split>
								<split pos="right">
									<output> 1.297897458076477 </output>
								</split>
							</split>
						</split>
					</split>
				</split>
				<split pos="right">
					<feature> 22 </feature>
					<threshold> 0.55859375 </threshold>
					<split pos="left">
						<feature> 43 </feature>
						<threshold> 0.9609375 </threshold>
						<split pos="left">
							<output> 1.0344682931900024 </output>
						</split>
						<split pos="right">
							<output> 1.0307742357254028 </output>
						</split>
					</split>
					<split pos="right">
						<output> 0.8317272663116455 </output>
					</split>
				</split>
			</split>
		</split>
	</tree>
	<tree id="29" weight="0.1">
		<split>
			<feature> 22 </feature>
			<threshold> 0.55078125 </threshold>
			<split pos="left">
				<output> -0.8471009731292725 </output>
			</split>
			<split pos="right">
				<feature> 23 </feature>
				<threshold> 0.5546875 </threshold>
				<split pos="left">
					<feature> 7 </feature>
					<threshold> 0.6015625 </threshold>
					<split pos="left">
						<feature> 10 </feature>
						<threshold> 0.043638673 </threshold>
						<split pos="left">
							<output> 1.2377588748931885 </output>
						</split>
						<split pos="right">
							<feature> 1 </feature>
							<threshold> 0.13476562 </threshold>
							<split pos="left">
								<output> 1.2377504110336304 </output>
							</split>
							<split pos="right">
								<output> 1.2301677465438843 </output>
							</split>
						</split>
					</split>
					<split pos="right">
						<feature> 24 </feature>
						<threshold> 0.421875 </threshold>
						<split pos="left">
							<output> 1.2395541667938232 </output>
						</split>
						<split pos="right">
							<feature> 1 </feature>
							<threshold> 0.9785156 </threshold>
							<split pos="left">
								<feature> 3 </feature>
								<threshold> 0.40746456 </threshold>
								<split pos="left">
									<output> 1.229169249534607 </output>
								</split>
								<split pos="right">
									<feature> 12 </feature>
									<threshold> 0.668432 </threshold>
									<split pos="left">
										<feature> 5 </feature>
										<threshold> 0.33984375 </threshold>
										<split pos="left">
											<output> 1.2406761646270752 </output>
										</split>
										<split pos="right">
											<output> 1.2395540475845337 </output>
										</split>
									</split>
									<split pos="right">
										<output> 1.2396384477615356 </output>
									</split>
								</split>
							</split>
							<split pos="right">
								<feature> 8 </feature>
								<threshold> 0.4375 </threshold>
								<split pos="left">
									<output> 1.23857843875885 </output>
								</split>
								<split pos="right">
									<output> 1.2395602464675903 </output>
								</split>
							</split>
						</split>
					</split>
				</split>
				<split pos="right">
					<feature> 22 </feature>
					<threshold> 0.55859375 </threshold>
					<split pos="left">
						<feature> 43 </feature>
						<threshold> 0.9609375 </threshold>
						<split pos="left">
							<output> 1.0284583568572998 </output>
						</split>
						<split pos="right">
							<output> 1.0058610439300537 </output>
						</split>
					</split>
					<split pos="right">
						<feature> 1 </feature>
						<threshold> 0.099609375 </threshold>
						<split pos="left">
							<output> 0.9407542943954468 </output>
						</split>
						<split pos="right">
							<output> 0.7851951122283936 </output>
						</split>
					</split>
				</split>
			</split>
		</split>
	</tree>
	<tree id="30" weight="0.1">
		<split>
			<feature> 22 </feature>
			<threshold> 0.55078125 </threshold>
			<split pos="left">
				<output> -0.8211081624031067 </output>
			</split>
			<split pos="right">
				<feature> 23 </feature>
				<threshold> 0.5546875 </threshold>
				<split pos="left">
					<feature> 7 </feature>
					<threshold> 0.6015625 </threshold>
					<split pos="left">
						<feature> 10 </feature>
						<threshold> 0.043638673 </threshold>
						<split pos="left">
							<output> 1.193015694618225 </output>
						</split>
						<split pos="right">
							<feature> 1 </feature>
							<threshold> 0.13476562 </threshold>
							<split pos="left">
								<output> 1.1930090188980103 </output>
							</split>
							<split pos="right">
								<output> 1.1875766515731812 </output>
							</split>
						</split>
					</split>
					<split pos="right">
						<feature> 24 </feature>
						<threshold> 0.421875 </threshold>
						<split pos="left">
							<output> 1.1944382190704346 </output>
						</split>
						<split pos="right">
							<feature> 1 </feature>
							<threshold> 0.9785156 </threshold>
							<split pos="left">
								<feature> 3 </feature>
								<threshold> 0.40746456 </threshold>
								<split pos="left">
									<output> 1.1825222969055176 </output>
								</split>
								<split pos="right">
									<feature> 1 </feature>
									<threshold> 0.05859375 </threshold>
									<split pos="left">
										<output> 1.1945050954818726 </output>
									</split>
									<split pos="right">
										<feature> 5 </feature>
										<threshold> 0.33984375 </threshold>
										<split pos="left">
											<output> 1.1959950923919678 </output>
										</split>
										<split pos="right">
											<output> 1.1944382190704346 </output>
										</split>
									</split>
								</split>
							</split>
							<split pos="right">
								<feature> 4 </feature>
								<threshold> 0.40625 </threshold>
								<split pos="left">
									<output> 1.1933486461639404 </output>
								</split>
								<split pos="right">
									<output> 1.1944429874420166 </output>
								</split>
							</split>
						</split>
					</split>
				</split>
				<split pos="right">
					<feature> 22 </feature>
					<threshold> 0.55859375 </threshold>
					<split pos="left">
						<feature> 43 </feature>
						<threshold> 0.9609375 </threshold>
						<split pos="left">
							<output> 1.0235915184020996 </output>
						</split>
						<split pos="right">
							<output> 0.9808650612831116 </output>
						</split>
					</split>
					<split pos="right">
						<feature> 1 </feature>
						<threshold> 0.099609375 </threshold>
						<split pos="left">
							<output> 0.9296366572380066 </output>
						</split>
						<split pos="right">
							<output> 0.7560499310493469 </output>
						</split>
					</split>
				</split>
			</split>
		</split>
	</tree>
	<tree id="31" weight="0.1">
		<split>
			<feature> 23 </feature>
			<threshold> 0.53125 </threshold>
			<split pos="left">
				<output> -0.8287983536720276 </output>
			</split>
			<split pos="right">
				<feature> 7 </feature>
				<threshold> 0.60546875 </threshold>
				<split pos="left">
					<feature> 12 </feature>
					<threshold> 0.044308595 </threshold>
					<split pos="left">
						<feature> 33 </feature>
						<threshold> 0.8359375 </threshold>
						<split pos="left">
							<output> 0.9904995560646057 </output>
						</split>
						<split pos="right">
							<output> 1.1578048467636108 </output>
						</split>
					</split>
					<split pos="right">
						<feature> 22 </feature>
						<threshold> 0.55078125 </threshold>
						<split pos="left">
							<output> 2.232609987258911 </output>
						</split>
						<split pos="right">
							<output> 1.09578537940979 </output>
						</split>
					</split>
				</split>
				<split pos="right">
					<feature> 22 </feature>
					<threshold> 0.55859375 </threshold>
					<split pos="left">
						<feature> 22 </feature>
						<threshold> 0.55078125 </threshold>
						<split pos="left">
							<output> 2.0882840156555176 </output>
						</split>
						<split pos="right">
							<feature> 24 </feature>
							<threshold> 0.421875 </threshold>
							<split pos="left">
								<output> 1.1589453220367432 </output>
							</split>
							<split pos="right">
								<feature> 1 </feature>
								<threshold> 0.984375 </threshold>
								<split pos="left">
									<feature> 43 </feature>
									<threshold> 0.9609375 </threshold>
									<split pos="left">
										<output> 1.0196173191070557 </output>
									</split>
									<split pos="right">
										<feature> 1 </feature>
										<threshold> 0.05859375 </threshold>
										<split pos="left">
											<feature> 3 </feature>
											<threshold> 0.40746456 </threshold>
											<split pos="left">
												<output> 1.10000479221344 </output>
											</split>
											<split pos="right">
												<output> 1.15853750705719 </output>
											</split>
										</split>
										<split pos="right">
											<feature> 35 </feature>
											<threshold> 0.89453125 </threshold>
											<split pos="left">
												<output> 1.0147686004638672 </output>
											</split>
											<split pos="right">
												<output> 1.130078911781311 </output>
											</split>
										</split>
									</split>
								</split>
								<split pos="right">
									<feature> 13 </feature>
									<threshold> 0.7890625 </threshold>
									<split pos="left">
										<output> 1.031563639640808 </output>
									</split>
									<split pos="right">
										<output> 1.1562544107437134 </output>
									</split>
								</split>
							</split>
						</split>
					</split>
					<split pos="right">
						<output> 0.744014322757721 </output>
					</split>
				</split>
			</split>
		</split>
	</tree>
	<tree id="32" weight="0.1">
		<split>
			<feature> 23 </feature>
			<threshold> 0.53125 </threshold>
			<split pos="left">
				<output> -1.5539766550064087 </output>
			</split>
			<split pos="right">
				<feature> 22 </feature>
				<threshold> 0.55078125 </threshold>
				<split pos="left">
					<feature> 7 </feature>
					<threshold> 0.60546875 </threshold>
					<split pos="left">
						<feature> 1 </feature>
						<threshold> 0.017578125 </threshold>
						<split pos="left">
							<output> 1.7362536191940308 </output>
						</split>
						<split pos="right">
							<feature> 7 </feature>
							<threshold> 0.546875 </threshold>
							<split pos="left">
								<output> 1.736210584640503 </output>
							</split>
							<split pos="right">
								<feature> 1 </feature>
								<threshold> 0.15820312 </threshold>
								<split pos="left">
									<output> 1.7361421585083008 </output>
								</split>
								<split pos="right">
									<feature> 36 </feature>
									<threshold> 0.6875 </threshold>
									<split pos="left">
										<output> 1.7364461421966553 </output>
									</split>
									<split pos="right">
										<output> 1.7361257076263428 </output>
									</split>
								</split>
							</split>
						</split>
					</split>
					<split pos="right">
						<feature> 33 </feature>
						<threshold> 0.96875 </threshold>
						<split pos="left">
							<feature> 34 </feature>
							<threshold> 0.55859375 </threshold>
							<split pos="left">
								<output> 1.7469596862792969 </output>
							</split>
							<split pos="right">
								<feature> 24 </feature>
								<threshold> 0.4453125 </threshold>
								<split pos="left">
									<feature> 37 </feature>
									<threshold> 0.82421875 </threshold>
									<split pos="left">
										<output> 1.7435894012451172 </output>
									</split>
									<split pos="right">
										<output> 1.747019648551941 </output>
									</split>
								</split>
								<split pos="right">
									<feature> 5 </feature>
									<threshold> 0.51953125 </threshold>
									<split pos="left">
										<feature> 1 </feature>
										<threshold> 0.9550781 </threshold>
										<split pos="left">
											<feature> 8 </feature>
											<threshold> 0.171875 </threshold>
											<split pos="left">
												<output> 1.7378029823303223 </output>
											</split>
											<split pos="right">
												<output> 1.7452185153961182 </output>
											</split>
										</split>
										<split pos="right">
											<output> 1.7460637092590332 </output>
										</split>
									</split>
									<split pos="right">
										<output> 1.7449259757995605 </output>
									</split>
								</split>
							</split>
						</split>
						<split pos="right">
							<output> 1.7469053268432617 </output>
						</split>
					</split>
				</split>
				<split pos="right">
					<output> 0.7894994616508484 </output>
				</split>
			</split>
		</split>
	</tree>
	<tree id="33" weight="0.1">
		<split>
			<feature> 23 </feature>
			<threshold> 0.53125 </threshold>
			<split pos="left">
				<output> -1.3835912942886353 </output>
			</split>
			<split pos="right">
				<feature> 22 </feature>
				<threshold> 0.55078125 </threshold>
				<split pos="left">
					<feature> 7 </feature>
					<threshold> 0.60546875 </threshold>
					<split pos="left">
						<feature> 1 </feature>
						<threshold> 0.017578125 </threshold>
						<split pos="left">
							<output> 1.5298280715942383 </output>
						</split>
						<split pos="right">
							<feature> 7 </feature>
							<threshold> 0.546875 </threshold>
							<split pos="left">
								<output> 1.529800295829773 </output>
							</split>
							<split pos="right">
								<feature> 1 </feature>
								<threshold> 0.15820312 </threshold>
								<split pos="left">
									<output> 1.5297560691833496 </output>
								</split>
								<split pos="right">
									<feature> 36 </feature>
									<threshold> 0.6875 </threshold>
									<split pos="left">
										<output> 1.5297462940216064 </output>
									</split>
									<split pos="right">
										<output> 1.5299019813537598 </output>
									</split>
								</split>
							</split>
						</split>
					</split>
					<split pos="right">
						<feature> 33 </feature>
						<threshold> 0.96875 </threshold>
						<split pos="left">
							<feature> 34 </feature>
							<threshold> 0.55859375 </threshold>
							<split pos="left">
								<output> 1.5369571447372437 </output>
							</split>
							<split pos="right">
								<feature> 24 </feature>
								<threshold> 0.4453125 </threshold>
								<split pos="left">
									<feature> 37 </feature>
									<threshold> 0.82421875 </threshold>
									<split pos="left">
										<output> 1.5338917970657349 </output>
									</split>
									<split pos="right">
										<output> 1.537064790725708 </output>
									</split>
								</split>
								<split pos="right">
									<feature> 1 </feature>
									<threshold> 0.9550781 </threshold>
									<split pos="left">
										<feature> 5 </feature>
										<threshold> 0.51953125 </threshold>
										<split pos="left">
											<feature> 8 </feature>
											<threshold> 0.171875 </threshold>
											<split pos="left">
												<output> 1.5277897119522095 </output>
											</split>
											<split pos="right">
												<output> 1.5356303453445435 </output>
											</split>
										</split>
										<split pos="right">
											<output> 1.5347166061401367 </output>
										</split>
									</split>
									<split pos="right">
										<output> 1.5363541841506958 </output>
									</split>
								</split>
							</split>
						</split>
						<split pos="right">
							<output> 1.5369220972061157 </output>
						</split>
					</split>
				</split>
				<split pos="right">
					<output> 0.7392017841339111 </output>
				</split>
			</split>
		</split>
	</tree>
	<tree id="34" weight="0.1">
		<split>
			<feature> 23 </feature>
			<threshold> 0.53125 </threshold>
			<split pos="left">
				<output> -1.2707659006118774 </output>
			</split>
			<split pos="right">
				<feature> 22 </feature>
				<threshold> 0.55078125 </threshold>
				<split pos="left">
					<feature> 7 </feature>
					<threshold> 0.60546875 </threshold>
					<split pos="left">
						<feature> 1 </feature>
						<threshold> 0.017578125 </threshold>
						<split pos="left">
							<output> 1.3959197998046875 </output>
						</split>
						<split pos="right">
							<feature> 7 </feature>
							<threshold> 0.546875 </threshold>
							<split pos="left">
								<output> 1.3959003686904907 </output>
							</split>
							<split pos="right">
								<feature> 1 </feature>
								<threshold> 0.15820312 </threshold>
								<split pos="left">
									<output> 1.3958693742752075 </output>
								</split>
								<split pos="right">
									<feature> 36 </feature>
									<threshold> 0.6875 </threshold>
									<split pos="left">
										<output> 1.3956245183944702 </output>
									</split>
									<split pos="right">
										<output> 1.3961414098739624 </output>
									</split>
								</split>
							</split>
						</split>
					</split>
					<split pos="right">
						<feature> 33 </feature>
						<threshold> 0.96875 </threshold>
						<split pos="left">
							<feature> 34 </feature>
							<threshold> 0.55859375 </threshold>
							<split pos="left">
								<output> 1.4009610414505005 </output>
							</split>
							<split pos="right">
								<feature> 24 </feature>
								<threshold> 0.4453125 </threshold>
								<split pos="left">
									<feature> 37 </feature>
									<threshold> 0.82421875 </threshold>
									<split pos="left">
										<output> 1.3979805707931519 </output>
									</split>
									<split pos="right">
										<output> 1.4011099338531494 </output>
									</split>
								</split>
