## LambdaMART
## No. of trees = 1000
## No. of leaves = 10
## No. of threshold candidates = 256
## Learning rate = 0.1
## Stop early = 50

<ensemble>
	<tree id="1" weight="0.1">
		<split>
			<feature> 1 </feature>
			<threshold> 0.0 </threshold>
			<split pos="left">
				<feature> 4 </feature>
				<threshold> 0.796875 </threshold>
				<split pos="left">
					<feature> 5 </feature>
					<threshold> 0.16015625 </threshold>
					<split pos="left">
						<output> -1.9641215801239014 </output>
					</split>
					<split pos="right">
						<output> 2.0 </output>
					</split>
				</split>
				<split pos="right">
					<feature> 2 </feature>
					<threshold> 0.17159137 </threshold>
					<split pos="left">
						<output> 2.0 </output>
					</split>
					<split pos="right">
						<output> 2.0 </output>
					</split>
				</split>
			</split>
			<split pos="right">
				<feature> 21 </feature>
				<threshold> 0.56640625 </threshold>
				<split pos="left">
					<feature> 23 </feature>
					<threshold> 0.40234375 </threshold>
					<split pos="left">
						<feature> 34 </feature>
						<threshold> 0.80859375 </threshold>
						<split pos="left">
							<output> 0.08818341791629791 </output>
						</split>
						<split pos="right">
							<output> 2.0 </output>
						</split>
					</split>
					<split pos="right">
						<output> 1.9952996969223022 </output>
					</split>
				</split>
				<split pos="right">
					<feature> 4 </feature>
					<threshold> 0.9921875 </threshold>
					<split pos="left">
						<feature> 21 </feature>
						<threshold> 0.7265625 </threshold>
						<split pos="left">
							<output> 2.0 </output>
						</split>
						<split pos="right">
							<output> 2.0 </output>
						</split>
					</split>
					<split pos="right">
						<output> 0.0 </output>
					</split>
				</split>
			</split>
		</split>
	</tree>
	<tree id="2" weight="0.1">
		<split>
			<feature> 27 </feature>
			<threshold> 0.51953125 </threshold>
			<split pos="left">
				<output> -1.1226952075958252 </output>
			</split>
			<split pos="right">
				<feature> 1 </feature>
				<threshold> 0.087890625 </threshold>
				<split pos="left">
					<feature> 4 </feature>
					<threshold> 0.23828125 </threshold>
					<split pos="left">
						<output> 1.8256988525390625 </output>
					</split>
					<split pos="right">
						<output> 1.8256281614303589 </output>
					</split>
				</split>
				<split pos="right">
					<feature> 13 </feature>
					<threshold> 0.9921875 </threshold>
					<split pos="left">
						<feature> 1 </feature>
						<threshold> 0.3564453 </threshold>
						<split pos="left">
							<feature> 19 </feature>
							<threshold> 0.9296875 </threshold>
							<split pos="left">
								<feature> 15 </feature>
								<threshold> 0.4613142 </threshold>
								<split pos="left">
									<output> 1.8259563446044922 </output>
								</split>
								<split pos="right">
									<output> 1.8243976831436157 </output>
								</split>
							</split>
							<split pos="right">
								<output> 1.8258352279663086 </output>
							</split>
						</split>
						<split pos="right">
							<feature> 7 </feature>
							<threshold> 0.546875 </threshold>
							<split pos="left">
								<output> 1.8263286352157593 </output>
							</split>
							<split pos="right">
								<feature> 7 </feature>
								<threshold> 0.7890625 </threshold>
								<split pos="left">
									<output> 1.8245500326156616 </output>
								</split>
								<split pos="right">
									<output> 1.82422935962677 </output>
								</split>
							</split>
						</split>
					</split>
					<split pos="right">
						<output> 1.4382578134536743 </output>
					</split>
				</split>
			</split>
		</split>
	</tree>
	<tree id="3" weight="0.1">
		<split>
			<feature> 27 </feature>
			<threshold> 0.51953125 </threshold>
			<split pos="left">
				<output> -1.0381032228469849 </output>
			</split>
			<split pos="right">
				<feature> 4 </feature>
				<threshold> 0.9921875 </threshold>
				<split pos="left">
					<feature> 1 </feature>
					<threshold> 0.09765625 </threshold>
					<split pos="left">
						<output> 1.6146284341812134 </output>
					</split>
					<split pos="right">
						<feature> 7 </feature>
						<threshold> 0.69140625 </threshold>
						<split pos="left">
							<output> 1.6141667366027832 </output>
						</split>
						<split pos="right">
							<feature> 22 </feature>
							<threshold> 0.68359375 </threshold>
							<split pos="left">
								<output> 1.6101562976837158 </output>
							</split>
							<split pos="right">
								<feature> 16 </feature>
								<threshold> 0.68390906 </threshold>
								<split pos="left">
									<output> 1.6149059534072876 </output>
								</split>
								<split pos="right">
									<feature> 3 </feature>
									<threshold> 0.3363982 </threshold>
									<split pos="left">
										<feature> 1 </feature>
										<threshold> 0.14648438 </threshold>
										<split pos="left">
											<output> 1.6150591373443604 </output>
										</split>
										<split pos="right">
											<feature> 5 </feature>
											<threshold> 0.7265625 </threshold>
											<split pos="left">
												<output> 1.6143465042114258 </output>
											</split>
											<split pos="right">
												<output> 1.6146975755691528 </output>
											</split>
										</split>
									</split>
									<split pos="right">
										<output> 1.6151142120361328 </output>
									</split>
								</split>
							</split>
						</split>
					</split>
				</split>
				<split pos="right">
					<output> -2.023874044418335 </output>
				</split>
			</split>
		</split>
	</tree>
	<tree id="4" weight="0.1">
		<split>
			<feature> 27 </feature>
			<threshold> 0.51953125 </threshold>
			<split pos="left">
				<feature> 23 </feature>
				<threshold> 0.44140625 </threshold>
				<split pos="left">
					<output> -1.3506170511245728 </output>
				</split>
				<split pos="right">
					<output> 1.8083274364471436 </output>
				</split>
			</split>
			<split pos="right">
				<feature> 4 </feature>
				<threshold> 0.9921875 </threshold>
				<split pos="left">
					<feature> 1 </feature>
					<threshold> 0.09765625 </threshold>
					<split pos="left">
						<output> 1.4712882041931152 </output>
					</split>
					<split pos="right">
						<feature> 7 </feature>
						<threshold> 0.69921875 </threshold>
						<split pos="left">
							<output> 1.4707666635513306 </output>
						</split>
						<split pos="right">
							<feature> 22 </feature>
							<threshold> 0.68359375 </threshold>
							<split pos="left">
								<output> 1.4656869173049927 </output>
							</split>
							<split pos="right">
								<feature> 16 </feature>
								<threshold> 0.68390906 </threshold>
								<split pos="left">
									<output> 1.4714736938476562 </output>
								</split>
								<split pos="right">
									<feature> 15 </feature>
									<threshold> 0.6994282 </threshold>
									<split pos="left">
										<output> 1.471899390220642 </output>
									</split>
									<split pos="right">
										<feature> 1 </feature>
										<threshold> 0.14648438 </threshold>
										<split pos="left">
											<output> 1.4715992212295532 </output>
										</split>
										<split pos="right">
											<output> 1.4710166454315186 </output>
										</split>
									</split>
								</split>
							</split>
						</split>
					</split>
				</split>
				<split pos="right">
					<output> -1.7143560647964478 </output>
				</split>
			</split>
		</split>
	</tree>
	<tree id="5" weight="0.1">
		<split>
			<feature> 23 </feature>
			<threshold> 0.51953125 </threshold>
			<split pos="left">
				<output> -1.00299870967865 </output>
			</split>
			<split pos="right">
				<feature> 1 </feature>
				<threshold> 0.09765625 </threshold>
				<split pos="left">
					<output> 1.3727161884307861 </output>
				</split>
				<split pos="right">
					<feature> 13 </feature>
					<threshold> 0.9921875 </threshold>
					<split pos="left">
						<feature> 27 </feature>
						<threshold> 0.5390625 </threshold>
						<split pos="left">
							<output> 1.5415598154067993 </output>
						</split>
						<split pos="right">
							<feature> 7 </feature>
							<threshold> 0.69921875 </threshold>
							<split pos="left">
								<output> 1.3546959161758423 </output>
							</split>
							<split pos="right">
								<feature> 22 </feature>
								<threshold> 0.68359375 </threshold>
								<split pos="left">
									<output> 1.350649356842041 </output>
								</split>
								<split pos="right">
									<feature> 16 </feature>
									<threshold> 0.68390906 </threshold>
									<split pos="left">
										<output> 1.355470895767212 </output>
									</split>
									<split pos="right">
										<feature> 15 </feature>
										<threshold> 0.6994282 </threshold>
										<split pos="left">
											<output> 1.3559097051620483 </output>
										</split>
										<split pos="right">
											<feature> 1 </feature>
											<threshold> 0.14648438 </threshold>
											<split pos="left">
												<output> 1.3556621074676514 </output>
											</split>
											<split pos="right">
												<output> 1.3552212715148926 </output>
											</split>
										</split>
									</split>
								</split>
							</split>
						</split>
					</split>
					<split pos="right">
						<output> 0.8858412504196167 </output>
					</split>
				</split>
			</split>
		</split>
	</tree>
	<tree id="6" weight="0.1">
		<split>
			<feature> 23 </feature>
			<threshold> 0.46875 </threshold>
			<split pos="left">
				<output> -1.0976721048355103 </output>
			</split>
			<split pos="right">
				<feature> 1 </feature>
				<threshold> 0.09765625 </threshold>
				<split pos="left">
					<output> 1.3173736333847046 </output>
				</split>
				<split pos="right">
					<feature> 13 </feature>
					<threshold> 0.9921875 </threshold>
					<split pos="left">
						<feature> 27 </feature>
						<threshold> 0.5390625 </threshold>
						<split pos="left">
							<output> 1.4707401990890503 </output>
						</split>
						<split pos="right">
							<feature> 7 </feature>
							<threshold> 0.69921875 </threshold>
							<split pos="left">
								<output> 1.2798960208892822 </output>
							</split>
							<split pos="right">
								<feature> 22 </feature>
								<threshold> 0.6875 </threshold>
								<split pos="left">
									<output> 1.2762951850891113 </output>
								</split>
								<split pos="right">
									<feature> 16 </feature>
									<threshold> 0.68390906 </threshold>
									<split pos="left">
										<output> 1.2808332443237305 </output>
									</split>
									<split pos="right">
										<feature> 1 </feature>
										<threshold> 0.14648438 </threshold>
										<split pos="left">
											<output> 1.2810202836990356 </output>
										</split>
										<split pos="right">
											<feature> 5 </feature>
											<threshold> 0.7265625 </threshold>
											<split pos="left">
												<output> 1.2804207801818848 </output>
											</split>
											<split pos="right">
												<output> 1.281173586845398 </output>
											</split>
										</split>
									</split>
								</split>
							</split>
						</split>
					</split>
					<split pos="right">
						<output> 0.6149275898933411 </output>
					</split>
				</split>
			</split>
		</split>
	</tree>
	<tree id="7" weight="0.1">
		<split>
			<feature> 23 </feature>
			<threshold> 0.44140625 </threshold>
			<split pos="left">
				<output> -1.0851866006851196 </output>
			</split>
			<split pos="right">
				<feature> 1 </feature>
				<threshold> 0.08300781 </threshold>
				<split pos="left">
					<output> 1.2577180862426758 </output>
				</split>
				<split pos="right">
					<feature> 4 </feature>
					<threshold> 0.9921875 </threshold>
					<split pos="left">
						<feature> 27 </feature>
						<threshold> 0.5390625 </threshold>
						<split pos="left">
							<feature> 7 </feature>
							<threshold> 0.60546875 </threshold>
							<split pos="left">
								<output> 1.4637717008590698 </output>
							</split>
							<split pos="right">
								<output> 1.3713632822036743 </output>
							</split>
						</split>
						<split pos="right">
							<feature> 7 </feature>
							<threshold> 0.69921875 </threshold>
							<split pos="left">
								<output> 1.2202935218811035 </output>
							</split>
							<split pos="right">
								<feature> 22 </feature>
								<threshold> 0.6875 </threshold>
								<split pos="left">
									<output> 1.216131329536438 </output>
								</split>
								<split pos="right">
									<feature> 16 </feature>
									<threshold> 0.68390906 </threshold>
									<split pos="left">
										<output> 1.2212605476379395 </output>
									</split>
									<split pos="right">
										<feature> 1 </feature>
										<threshold> 0.14648438 </threshold>
										<split pos="left">
											<output> 1.2212536334991455 </output>
										</split>
										<split pos="right">
											<output> 1.2211418151855469 </output>
										</split>
									</split>
								</split>
							</split>
						</split>
					</split>
					<split pos="right">
						<output> -1.8764549493789673 </output>
					</split>
				</split>
			</split>
		</split>
	</tree>
	<tree id="8" weight="0.1">
		<split>
			<feature> 23 </feature>
			<threshold> 0.44140625 </threshold>
			<split pos="left">
				<feature> 34 </feature>
				<threshold> 0.81640625 </threshold>
				<split pos="left">
					<output> -1.2460640668869019 </output>
				</split>
				<split pos="right">
					<output> 1.7885289192199707 </output>
				</split>
			</split>
			<split pos="right">
				<feature> 1 </feature>
				<threshold> 0.08300781 </threshold>
				<split pos="left">
					<output> 1.2050926685333252 </output>
				</split>
				<split pos="right">
					<feature> 4 </feature>
					<threshold> 0.9921875 </threshold>
					<split pos="left">
						<feature> 27 </feature>
						<threshold> 0.5390625 </threshold>
						<split pos="left">
							<output> 1.3142921924591064 </output>
						</split>
						<split pos="right">
							<feature> 7 </feature>
							<threshold> 0.69921875 </threshold>
							<split pos="left">
								<output> 1.1745216846466064 </output>
							</split>
							<split pos="right">
								<feature> 22 </feature>
								<threshold> 0.6875 </threshold>
								<split pos="left">
									<output> 1.1697683334350586 </output>
								</split>
								<split pos="right">
									<feature> 16 </feature>
									<threshold> 0.68390906 </threshold>
									<split pos="left">
										<output> 1.1756004095077515 </output>
									</split>
									<split pos="right">
										<feature> 1 </feature>
										<threshold> 0.14648438 </threshold>
										<split pos="left">
											<output> 1.1756492853164673 </output>
										</split>
										<split pos="right">
											<output> 1.1755726337432861 </output>
										</split>
									</split>
								</split>
							</split>
						</split>
					</split>
					<split pos="right">
						<output> -1.8055795431137085 </output>
					</split>
				</split>
			</split>
		</split>
	</tree>
	<tree id="9" weight="0.1">
		<split>
			<feature> 23 </feature>
			<threshold> 0.40234375 </threshold>
			<split pos="left">
				<output> -1.099298119544983 </output>
			</split>
			<split pos="right">
				<feature> 27 </feature>
				<threshold> 0.5390625 </threshold>
				<split pos="left">
					<feature> 7 </feature>
					<threshold> 0.609375 </threshold>
					<split pos="left">
						<output> 1.3629158735275269 </output>
					</split>
					<split pos="right">
						<output> 1.2877291440963745 </output>
					</split>
				</split>
				<split pos="right">
					<feature> 12 </feature>
					<threshold> 0.9921956 </threshold>
					<split pos="left">
						<feature> 1 </feature>
						<threshold> 0.09765625 </threshold>
						<split pos="left">
							<output> 1.1361689567565918 </output>
						</split>
						<split pos="right">
							<feature> 7 </feature>
							<threshold> 0.69921875 </threshold>
							<split pos="left">
								<output> 1.136507272720337 </output>
							</split>
							<split pos="right">
								<feature> 22 </feature>
								<threshold> 0.6875 </threshold>
								<split pos="left">
									<output> 1.1308361291885376 </output>
								</split>
								<split pos="right">
									<feature> 16 </feature>
									<threshold> 0.68390906 </threshold>
									<split pos="left">
										<output> 1.1378254890441895 </output>
									</split>
									<split pos="right">
										<feature> 1 </feature>
										<threshold> 0.14648438 </threshold>
										<split pos="left">
											<output> 1.1384482383728027 </output>
										</split>
										<split pos="right">
											<output> 1.1379129886627197 </output>
										</split>
									</split>
								</split>
							</split>
						</split>
					</split>
					<split pos="right">
						<output> -1.715257167816162 </output>
					</split>
				</split>
			</split>
		</split>
	</tree>
	<tree id="10" weight="0.1">
		<split>
			<feature> 23 </feature>
			<threshold> 0.40234375 </threshold>
			<split pos="left">
				<feature> 34 </feature>
				<threshold> 0.81640625 </threshold>
				<split pos="left">
					<output> -1.1441056728363037 </output>
				</split>
				<split pos="right">
					<output> 1.5686177015304565 </output>
				</split>
			</split>
			<split pos="right">
				<feature> 7 </feature>
				<threshold> 0.609375 </threshold>
				<split pos="left">
					<feature> 4 </feature>
					<threshold> 0.01953125 </threshold>
					<split pos="left">
						<output> 1.266440987586975 </output>
					</split>
					<split pos="right">
						<feature> 21 </feature>
						<threshold> 0.42578125 </threshold>
						<split pos="left">
							<output> 1.495517373085022 </output>
						</split>
						<split pos="right">
							<output> 1.2566548585891724 </output>
						</split>
					</split>
				</split>
				<split pos="right">
					<feature> 27 </feature>
					<threshold> 0.5390625 </threshold>
					<split pos="left">
						<output> 1.231557846069336 </output>
					</split>
					<split pos="right">
						<feature> 6 </feature>
						<threshold> 0.0 </threshold>
						<split pos="left">
							<feature> 1 </feature>
							<threshold> 0.09765625 </threshold>
							<split pos="left">
								<output> 1.108924388885498 </output>
							</split>
							<split pos="right">
								<feature> 24 </feature>
								<threshold> 0.69921875 </threshold>
								<split pos="left">
									<output> 1.1052192449569702 </output>
								</split>
								<split pos="right">
									<output> 1.1109203100204468 </output>
								</split>
							</split>
						</split>
						<split pos="right">
							<output> -1.7033435106277466 </output>
						</split>
					</split>
				</split>
			</split>
		</split>
	</tree>
	<tree id="11" weight="0.1">
		<split>
			<feature> 23 </feature>
			<threshold> 0.40234375 </threshold>
			<split pos="left">
				<feature> 34 </feature>
				<threshold> 0.81640625 </threshold>
				<split pos="left">
					<output> -1.1815553903579712 </output>
				</split>
				<split pos="right">
					<output> 1.4210972785949707 </output>
				</split>
			</split>
			<split pos="right">
				<feature> 7 </feature>
				<threshold> 0.609375 </threshold>
				<split pos="left">
					<feature> 4 </feature>
					<threshold> 0.01953125 </threshold>
					<split pos="left">
						<output> 1.1958727836608887 </output>
					</split>
					<split pos="right">
						<feature> 21 </feature>
						<threshold> 0.42578125 </threshold>
						<split pos="left">
							<output> 1.3810080289840698 </output>
						</split>
						<split pos="right">
							<output> 1.2038776874542236 </output>
						</split>
					</split>
				</split>
				<split pos="right">
					<feature> 27 </feature>
					<threshold> 0.5390625 </threshold>
					<split pos="left">
						<output> 1.1764678955078125 </output>
					</split>
					<split pos="right">
						<feature> 6 </feature>
						<threshold> 0.0 </threshold>
						<split pos="left">
							<feature> 1 </feature>
							<threshold> 0.09765625 </threshold>
							<split pos="left">
								<output> 1.0869131088256836 </output>
							</split>
							<split pos="right">
								<feature> 24 </feature>
								<threshold> 0.69921875 </threshold>
								<split pos="left">
									<output> 1.0817248821258545 </output>
								</split>
								<split pos="right">
									<output> 1.0889898538589478 </output>
								</split>
							</split>
						</split>
						<split pos="right">
							<output> -1.6874349117279053 </output>
						</split>
					</split>
				</split>
			</split>
		</split>
	</tree>
	<tree id="12" weight="0.1">
		<split>
			<feature> 23 </feature>
			<threshold> 0.40234375 </threshold>
			<split pos="left">
				<feature> 34 </feature>
				<threshold> 0.81640625 </threshold>
				<split pos="left">
					<output> -1.0866358280181885 </output>
				</split>
				<split pos="right">
					<output> 1.3102476596832275 </output>
				</split>
			</split>
			<split pos="right">
				<feature> 7 </feature>
				<threshold> 0.609375 </threshold>
				<split pos="left">
					<feature> 4 </feature>
					<threshold> 0.01953125 </threshold>
					<split pos="left">
						<output> 1.1339430809020996 </output>
					</split>
					<split pos="right">
						<feature> 21 </feature>
						<threshold> 0.42578125 </threshold>
						<split pos="left">
							<output> 1.295189380645752 </output>
						</split>
						<split pos="right">
							<output> 1.1622949838638306 </output>
						</split>
					</split>
				</split>
				<split pos="right">
					<feature> 27 </feature>
					<threshold> 0.5390625 </threshold>
					<split pos="left">
						<output> 1.1307637691497803 </output>
					</split>
					<split pos="right">
						<feature> 4 </feature>
						<threshold> 0.9921875 </threshold>
						<split pos="left">
							<feature> 1 </feature>
							<threshold> 0.09765625 </threshold>
							<split pos="left">
								<output> 1.069236159324646 </output>
							</split>
							<split pos="right">
								<feature> 24 </feature>
								<threshold> 0.69921875 </threshold>
								<split pos="left">
									<output> 1.062626838684082 </output>
								</split>
								<split pos="right">
									<output> 1.0714837312698364 </output>
								</split>
							</split>
						</split>
						<split pos="right">
							<output> -1.3863457441329956 </output>
						</split>
					</split>
				</split>
			</split>
		</split>
	</tree>
	<tree id="13" weight="0.1">
		<split>
			<feature> 23 </feature>
			<threshold> 0.40234375 </threshold>
			<split pos="left">
				<feature> 34 </feature>
				<threshold> 0.81640625 </threshold>
				<split pos="left">
					<output> -1.0860058069229126 </output>
				</split>
				<split pos="right">
					<feature> 16 </feature>
					<threshold> 0.36391813 </threshold>
					<split pos="left">
						<output> 1.260304570198059 </output>
					</split>
					<split pos="right">
						<output> 1.1936451196670532 </output>
					</split>
				</split>
			</split>
			<split pos="right">
				<feature> 7 </feature>
				<threshold> 0.51171875 </threshold>
				<split pos="left">
					<output> 1.203096866607666 </output>
				</split>
				<split pos="right">
					<feature> 27 </feature>
					<threshold> 0.5390625 </threshold>
					<split pos="left">
						<output> 1.0970085859298706 </output>
					</split>
					<split pos="right">
						<feature> 6 </feature>
						<threshold> 0.0 </threshold>
						<split pos="left">
							<feature> 1 </feature>
							<threshold> 0.09765625 </threshold>
							<split pos="left">
								<output> 1.0557770729064941 </output>
							</split>
							<split pos="right">
								<feature> 7 </feature>
								<threshold> 0.69921875 </threshold>
								<split pos="left">
									<output> 1.0533452033996582 </output>
								</split>
								<split pos="right">
									<feature> 24 </feature>
									<threshold> 0.6953125 </threshold>
									<split pos="left">
										<output> 1.0454446077346802 </output>
									</split>
									<split pos="right">
										<output> 1.058205008506775 </output>
									</split>
								</split>
							</split>
						</split>
						<split pos="right">
							<output> -1.3811445236206055 </output>
						</split>
					</split>
				</split>
			</split>
		</split>
	</tree>
	<tree id="14" weight="0.1">
		<split>
			<feature> 23 </feature>
			<threshold> 0.40234375 </threshold>
			<split pos="left">
				<feature> 34 </feature>
				<threshold> 0.81640625 </threshold>
				<split pos="left">
					<output> -1.0913653373718262 </output>
				</split>
				<split pos="right">
					<feature> 16 </feature>
					<threshold> 0.36391813 </threshold>
					<split pos="left">
						<output> 1.198122501373291 </output>
					</split>
					<split pos="right">
						<output> 1.1188488006591797 </output>
					</split>
				</split>
			</split>
			<split pos="right">
				<feature> 7 </feature>
				<threshold> 0.51171875 </threshold>
				<split pos="left">
					<output> 1.1614729166030884 </output>
				</split>
				<split pos="right">
					<feature> 27 </feature>
					<threshold> 0.5390625 </threshold>
					<split pos="left">
						<output> 1.0665994882583618 </output>
					</split>
					<split pos="right">
						<feature> 4 </feature>
						<threshold> 0.9921875 </threshold>
						<split pos="left">
							<feature> 1 </feature>
							<threshold> 0.09765625 </threshold>
							<split pos="left">
								<output> 1.0449920892715454 </output>
							</split>
							<split pos="right">
								<feature> 7 </feature>
								<threshold> 0.69921875 </threshold>
								<split pos="left">
									<output> 1.042157530784607 </output>
								</split>
								<split pos="right">
									<feature> 24 </feature>
									<threshold> 0.6953125 </threshold>
									<split pos="left">
										<output> 1.0322296619415283 </output>
									</split>
									<split pos="right">
										<output> 1.0477867126464844 </output>
									</split>
								</split>
							</split>
						</split>
						<split pos="right">
							<output> -1.3871006965637207 </output>
						</split>
					</split>
				</split>
			</split>
		</split>
	</tree>
	<tree id="15" weight="0.1">
		<split>
			<feature> 23 </feature>
			<threshold> 0.40234375 </threshold>
			<split pos="left">
				<feature> 34 </feature>
				<threshold> 0.81640625 </threshold>
				<split pos="left">
					<output> -1.0964258909225464 </output>
				</split>
				<split pos="right">
					<feature> 16 </feature>
					<threshold> 0.36391813 </threshold>
					<split pos="left">
						<output> 1.148736834526062 </output>
					</split>
					<split pos="right">
						<output> 1.060104250907898 </output>
					</split>
				</split>
			</split>
			<split pos="right">
				<feature> 7 </feature>
				<threshold> 0.51171875 </threshold>
				<split pos="left">
					<output> 1.1286951303482056 </output>
				</split>
				<split pos="right">
					<feature> 27 </feature>
					<threshold> 0.5390625 </threshold>
					<split pos="left">
						<output> 1.039636492729187 </output>
					</split>
					<split pos="right">
						<feature> 6 </feature>
						<threshold> 0.0 </threshold>
						<split pos="left">
							<feature> 1 </feature>
							<threshold> 0.09765625 </threshold>
							<split pos="left">
								<output> 1.0363061428070068 </output>
							</split>
							<split pos="right">
								<feature> 7 </feature>
								<threshold> 0.69921875 </threshold>
								<split pos="left">
									<output> 1.0328105688095093 </output>
								</split>
								<split pos="right">
									<feature> 24 </feature>
									<threshold> 0.6953125 </threshold>
									<split pos="left">
										<output> 1.0207109451293945 </output>
									</split>
									<split pos="right">
										<output> 1.0396043062210083 </output>
									</split>
								</split>
							</split>
						</split>
						<split pos="right">
							<output> -1.4022510051727295 </output>
						</split>
					</split>
				</split>
			</split>
		</split>
	</tree>
	<tree id="16" weight="0.1">
		<split>
			<feature> 23 </feature>
			<threshold> 0.40234375 </threshold>
			<split pos="left">
				<feature> 34 </feature>
				<threshold> 0.81640625 </threshold>
				<split pos="left">
					<output> -1.045237421989441 </output>
				</split>
				<split pos="right">
					<feature> 16 </feature>
					<threshold> 0.36391813 </threshold>
					<split pos="left">
						<output> 1.1083651781082153 </output>
					</split>
					<split pos="right">
						<output> 1.007975459098816 </output>
					</split>
				</split>
			</split>
			<split pos="right">
				<feature> 7 </feature>
				<threshold> 0.51171875 </threshold>
				<split pos="left">
					<output> 1.102476954460144 </output>
				</split>
				<split pos="right">
					<feature> 27 </feature>
					<threshold> 0.5390625 </threshold>
					<split pos="left">
						<output> 1.014858365058899 </output>
					</split>
					<split pos="right">
						<feature> 4 </feature>
						<threshold> 0.9921875 </threshold>
						<split pos="left">
							<feature> 1 </feature>
							<threshold> 0.09765625 </threshold>
							<split pos="left">
								<output> 1.029300570487976 </output>
							</split>
							<split pos="right">
								<feature> 7 </feature>
								<threshold> 0.69921875 </threshold>
								<split pos="left">
									<output> 1.0250016450881958 </output>
								</split>
								<split pos="right">
									<feature> 24 </feature>
									<threshold> 0.6953125 </threshold>
									<split pos="left">
										<output> 1.0102747678756714 </output>
									</split>
									<split pos="right">
										<output> 1.033251404762268 </output>
									</split>
								</split>
							</split>
						</split>
						<split pos="right">
							<output> -1.424525260925293 </output>
						</split>
					</split>
				</split>
			</split>
		</split>
	</tree>
	<tree id="17" weight="0.1">
		<split>
			<feature> 23 </feature>
			<threshold> 0.40234375 </threshold>
			<split pos="left">
				<feature> 34 </feature>
				<threshold> 0.81640625 </threshold>
				<split pos="left">
					<output> -1.0315603017807007 </output>
				</split>
				<split pos="right">
					<feature> 16 </feature>
					<threshold> 0.36391813 </threshold>
					<split pos="left">
						<output> 1.0752575397491455 </output>
					</split>
					<split pos="right">
						<output> 0.9611707925796509 </output>
					</split>
				</split>
			</split>
			<split pos="right">
				<feature> 7 </feature>
				<threshold> 0.51171875 </threshold>
				<split pos="left">
					<output> 1.0818332433700562 </output>
				</split>
				<split pos="right">
					<feature> 27 </feature>
					<threshold> 0.5390625 </threshold>
					<split pos="left">
						<output> 0.9919009804725647 </output>
					</split>
					<split pos="right">
						<feature> 6 </feature>
						<threshold> 0.0 </threshold>
						<split pos="left">
							<feature> 1 </feature>
							<threshold> 0.09765625 </threshold>
							<split pos="left">
								<output> 1.0237730741500854 </output>
							</split>
							<split pos="right">
								<feature> 7 </feature>
								<threshold> 0.69921875 </threshold>
								<split pos="left">
									<output> 1.0185234546661377 </output>
								</split>
								<split pos="right">
									<feature> 24 </feature>
									<threshold> 0.6953125 </threshold>
									<split pos="left">
										<output> 1.0006953477859497 </output>
									</split>
									<split pos="right">
										<output> 1.0285131931304932 </output>
									</split>
								</split>
							</split>
						</split>
						<split pos="right">
							<output> -1.4494065046310425 </output>
						</split>
					</split>
				</split>
			</split>
		</split>
	</tree>
	<tree id="18" weight="0.1">
		<split>
			<feature> 23 </feature>
			<threshold> 0.40234375 </threshold>
			<split pos="left">
				<feature> 34 </feature>
				<threshold> 0.81640625 </threshold>
				<split pos="left">
					<output> -1.0373718738555908 </output>
				</split>
				<split pos="right">
					<feature> 16 </feature>
					<threshold> 0.36391813 </threshold>
					<split pos="left">
						<output> 1.0466933250427246 </output>
					</split>
					<split pos="right">
						<output> 0.9168678522109985 </output>
					</split>
				</split>
			</split>
			<split pos="right">
				<feature> 7 </feature>
				<threshold> 0.51171875 </threshold>
				<split pos="left">
					<output> 1.0651136636734009 </output>
				</split>
				<split pos="right">
					<feature> 27 </feature>
					<threshold> 0.5390625 </threshold>
					<split pos="left">
						<output> 0.9694640040397644 </output>
					</split>
					<split pos="right">
						<feature> 4 </feature>
						<threshold> 0.9921875 </threshold>
						<split pos="left">
							<feature> 1 </feature>
							<threshold> 0.09765625 </threshold>
							<split pos="left">
								<output> 1.0193073749542236 </output>
							</split>
							<split pos="right">
								<feature> 7 </feature>
								<threshold> 0.69921875 </threshold>
								<split pos="left">
									<output> 1.0129148960113525 </output>
								</split>
								<split pos="right">
									<feature> 24 </feature>
									<threshold> 0.6953125 </threshold>
									<split pos="left">
										<output> 0.9913904070854187 </output>
									</split>
									<split pos="right">
										<output> 1.025004506111145 </output>
									</split>
								</split>
							</split>
						</split>
						<split pos="right">
							<output> -1.0464515686035156 </output>
						</split>
					</split>
				</split>
			</split>
		</split>
	</tree>
	<tree id="19" weight="0.1">
		<split>
			<feature> 23 </feature>
			<threshold> 0.40234375 </threshold>
			<split pos="left">
				<feature> 34 </feature>
				<threshold> 0.81640625 </threshold>
				<split pos="left">
					<output> -1.0144459009170532 </output>
				</split>
				<split pos="right">
					<feature> 16 </feature>
					<threshold> 0.36391813 </threshold>
					<split pos="left">
						<output> 1.0209474563598633 </output>
					</split>
					<split pos="right">
						<output> 0.8732557892799377 </output>
					</split>
				</split>
			</split>
			<split pos="right">
				<feature> 7 </feature>
				<threshold> 0.51171875 </threshold>
				<split pos="left">
					<output> 1.0513094663619995 </output>
				</split>
				<split pos="right">
					<feature> 27 </feature>
					<threshold> 0.5390625 </threshold>
					<split pos="left">
						<feature> 7 </feature>
						<threshold> 0.61328125 </threshold>
						<split pos="left">
							<output> 1.0076470375061035 </output>
						</split>
						<split pos="right">
							<output> 0.9249844551086426 </output>
						</split>
					</split>
					<split pos="right">
						<feature> 4 </feature>
						<threshold> 0.9921875 </threshold>
						<split pos="left">
							<feature> 1 </feature>
							<threshold> 0.09765625 </threshold>
							<split pos="left">
								<output> 1.0156501531600952 </output>
							</split>
							<split pos="right">
								<feature> 7 </feature>
								<threshold> 0.69921875 </threshold>
								<split pos="left">
									<output> 1.007867693901062 </output>
								</split>
								<split pos="right">
									<output> 1.0115480422973633 </output>
								</split>
							</split>
						</split>
						<split pos="right">
							<output> -1.0382837057113647 </output>
						</split>
					</split>
				</split>
			</split>
		</split>
	</tree>
	<tree id="20" weight="0.1">
		<split>
			<feature> 23 </feature>
			<threshold> 0.40234375 </threshold>
			<split pos="left">
				<feature> 34 </feature>
				<threshold> 0.81640625 </threshold>
				<split pos="left">
					<output> -1.0130788087844849 </output>
				</split>
				<split pos="right">
					<feature> 16 </feature>
					<threshold> 0.36391813 </threshold>
					<split pos="left">
						<output> 0.9971864819526672 </output>
					</split>
					<split pos="right">
						<output> 0.8299926519393921 </output>
					</split>
				</split>
			</split>
			<split pos="right">
				<feature> 7 </feature>
				<threshold> 0.51171875 </threshold>
				<split pos="left">
					<output> 1.0399245023727417 </output>
				</split>
				<split pos="right">
					<feature> 27 </feature>
					<threshold> 0.5390625 </threshold>
					<split pos="left">
						<feature> 7 </feature>
						<threshold> 0.61328125 </threshold>
						<split pos="left">
							<output> 0.9961797595024109 </output>
						</split>
						<split pos="right">
							<output> 0.8970588445663452 </output>
						</split>
					</split>
					<split pos="right">
						<feature> 9 </feature>
						<threshold> 0.99218774 </threshold>
						<split pos="left">
							<feature> 1 </feature>
							<threshold> 0.09765625 </threshold>
							<split pos="left">
								<output> 1.0126675367355347 </output>
							</split>
							<split pos="right">
								<feature> 7 </feature>
								<threshold> 0.69921875 </threshold>
								<split pos="left">
									<output> 1.0032249689102173 </output>
								</split>
								<split pos="right">
									<output> 1.0076448917388916 </output>
								</split>
							</split>
						</split>
						<split pos="right">
							<output> -1.0316704511642456 </output>
						</split>
					</split>
				</split>
			</split>
		</split>
	</tree>
	<tree id="21" weight="0.1">
		<split>
			<feature> 23 </feature>
			<threshold> 0.40234375 </threshold>
			<split pos="left">
				<feature> 34 </feature>
				<threshold> 0.81640625 </threshold>
				<split pos="left">
					<output> -1.0091103315353394 </output>
				</split>
				<split pos="right">
					<feature> 16 </feature>
					<threshold> 0.36391813 </threshold>
					<split pos="left">
						<output> 0.9741712212562561 </output>
					</split>
					<split pos="right">
						<output> 0.7859665751457214 </output>
					</split>
				</split>
			</split>
			<split pos="right">
				<feature> 7 </feature>
				<threshold> 0.51171875 </threshold>
				<split pos="left">
					<output> 1.0302753448486328 </output>
				</split>
				<split pos="right">
					<feature> 27 </feature>
					<threshold> 0.5390625 </threshold>
					<split pos="left">
						<feature> 7 </feature>
						<threshold> 0.61328125 </threshold>
						<split pos="left">
							<output> 0.9847567081451416 </output>
						</split>
						<split pos="right">
							<output> 0.867904543876648 </output>
						</split>
					</split>
					<split pos="right">
						<feature> 5 </feature>
						<threshold> 0.98828125 </threshold>
						<split pos="left">
							<feature> 1 </feature>
							<threshold> 0.09765625 </threshold>
							<split pos="left">
								<output> 1.0101834535598755 </output>
							</split>
							<split pos="right">
								<feature> 7 </feature>
								<threshold> 0.69921875 </threshold>
								<split pos="left">
									<output> 0.9987370371818542 </output>
								</split>
								<split pos="right">
									<output> 1.0040283203125 </output>
								</split>
							</split>
						</split>
						<split pos="right">
							<output> -1.0262794494628906 </output>
						</split>
					</split>
				</split>
			</split>
		</split>
	</tree>
	<tree id="22" weight="0.1">
		<split>
			<feature> 23 </feature>
			<threshold> 0.40234375 </threshold>
			<split pos="left">
				<feature> 34 </feature>
				<threshold> 0.81640625 </threshold>
				<split pos="left">
					<output> -1.0109753608703613 </output>
				</split>
				<split pos="right">
					<feature> 16 </feature>
					<threshold> 0.36391813 </threshold>
					<split pos="left">
						<output> 0.951088547706604 </output>
					</split>
					<split pos="right">
						<output> 0.740861177444458 </output>
					</split>
				</split>
			</split>
			<split pos="right">
				<feature> 7 </feature>
				<threshold> 0.51171875 </threshold>
				<split pos="left">
					<output> 1.0219333171844482 </output>
				</split>
				<split pos="right">
					<feature> 27 </feature>
					<threshold> 0.5390625 </threshold>
					<split pos="left">
						<feature> 7 </feature>
						<threshold> 0.61328125 </threshold>
						<split pos="left">
							<output> 0.972976803779602 </output>
						</split>
						<split pos="right">
							<output> 0.8365607857704163 </output>
						</split>
					</split>
					<split pos="right">
						<feature> 6 </feature>
						<threshold> 0.0 </threshold>
						<split pos="left">
							<feature> 1 </feature>
							<threshold> 0.09765625 </threshold>
							<split pos="left">
								<output> 1.008077621459961 </output>
							</split>
							<split pos="right">
								<feature> 7 </feature>
								<threshold> 0.69921875 </threshold>
								<split pos="left">
									<output> 0.9942194819450378 </output>
								</split>
								<split pos="right">
									<output> 1.0005183219909668 </output>
								</split>
							</split>
						</split>
						<split pos="right">
							<output> -1.0218780040740967 </output>
						</split>
					</split>
				</split>
			</split>
		</split>
	</tree>
	<tree id="23" weight="0.1">
		<split>
			<feature> 23 </feature>
			<threshold> 0.40234375 </threshold>
			<split pos="left">
				<feature> 34 </feature>
				<threshold> 0.82421875 </threshold>
				<split pos="left">
					<output> -0.9875957369804382 </output>
				</split>
				<split pos="right">
					<feature> 16 </feature>
					<threshold> 0.36391813 </threshold>
					<split pos="left">
						<output> 0.9479748606681824 </output>
					</split>
					<split pos="right">
						<output> 0.7077811360359192 </output>
					</split>
				</split>
			</split>
			<split pos="right">
				<feature> 7 </feature>
				<threshold> 0.51171875 </threshold>
				<split pos="left">
					<output> 1.0145004987716675 </output>
				</split>
				<split pos="right">
					<feature> 27 </feature>
					<threshold> 0.5390625 </threshold>
					<split pos="left">
						<feature> 7 </feature>
						<threshold> 0.61328125 </threshold>
						<split pos="left">
							<output> 0.9598566889762878 </output>
						</split>
						<split pos="right">
							<output> 0.7996200919151306 </output>
						</split>
					</split>
					<split pos="right">
						<feature> 8 </feature>
						<threshold> 0.99609375 </threshold>
						<split pos="left">
							<feature> 1 </feature>
							<threshold> 0.09765625 </threshold>
							<split pos="left">
								<output> 1.0051847696304321 </output>
							</split>
							<split pos="right">
								<feature> 7 </feature>
								<threshold> 0.69921875 </threshold>
								<split pos="left">
									<output> 0.989472508430481 </output>
								</split>
								<split pos="right">
									<output> 0.996959388256073 </output>
								</split>
							</split>
						</split>
						<split pos="right">
							<output> -1.0182791948318481 </output>
						</split>
					</split>
				</split>
			</split>
		</split>
	</tree>
	<tree id="24" weight="0.1">
		<split>
			<feature> 23 </feature>
			<threshold> 0.40234375 </threshold>
			<split pos="left">
				<feature> 34 </feature>
				<threshold> 0.82421875 </threshold>
				<split pos="left">
					<output> -0.9852160811424255 </output>
				</split>
				<split pos="right">
					<feature> 16 </feature>
					<threshold> 0.3795275 </threshold>
					<split pos="left">
						<output> 0.9209244847297668 </output>
					</split>
					<split pos="right">
						<output> 0.6489538550376892 </output>
					</split>
				</split>
			</split>
			<split pos="right">
				<feature> 7 </feature>
				<threshold> 0.51171875 </threshold>
				<split pos="left">
					<output> 1.0076987743377686 </output>
				</split>
				<split pos="right">
					<feature> 27 </feature>
					<threshold> 0.5390625 </threshold>
					<split pos="left">
						<feature> 7 </feature>
						<threshold> 0.61328125 </threshold>
						<split pos="left">
							<output> 0.9461597204208374 </output>
						</split>
						<split pos="right">
							<output> 0.7604355812072754 </output>
						</split>
					</split>
					<split pos="right">
						<feature> 6 </feature>
						<threshold> 0.0 </threshold>
						<split pos="left">
							<feature> 1 </feature>
							<threshold> 0.09765625 </threshold>
							<split pos="left">
								<output> 1.0026748180389404 </output>
							</split>
							<split pos="right">
								<feature> 7 </feature>
								<threshold> 0.69921875 </threshold>
								<split pos="left">
									<output> 0.9842603802680969 </output>
								</split>
								<split pos="right">
									<output> 0.9930028915405273 </output>
								</split>
							</split>
						</split>
						<split pos="right">
							<output> -1.015328049659729 </output>
						</split>
					</split>
				</split>
			</split>
		</split>
	</tree>
	<tree id="25" weight="0.1">
		<split>
			<feature> 23 </feature>
			<threshold> 0.40234375 </threshold>
			<split pos="left">
				<feature> 34 </feature>
				<threshold> 0.82421875 </threshold>
				<split pos="left">
					<output> -0.9818168878555298 </output>
				</split>
				<split pos="right">
					<feature> 16 </feature>
					<threshold> 0.3795275 </threshold>
					<split pos="left">
						<output> 0.8964879512786865 </output>
					</split>
					<split pos="right">
						<output> 0.5983800292015076 </output>
					</split>
				</split>
			</split>
			<split pos="right">
				<feature> 7 </feature>
				<threshold> 0.51171875 </threshold>
				<split pos="left">
					<output> 1.0011764764785767 </output>
				</split>
				<split pos="right">
					<feature> 27 </feature>
					<threshold> 0.5390625 </threshold>
					<split pos="left">
						<feature> 7 </feature>
						<threshold> 0.61328125 </threshold>
						<split pos="left">
							<output> 0.9294360280036926 </output>
						</split>
						<split pos="right">
							<output> 0.7195628881454468 </output>
						</split>
					</split>
					<split pos="right">
						<feature> 5 </feature>
						<threshold> 0.98828125 </threshold>
						<split pos="left">
							<feature> 1 </feature>
							<threshold> 0.09765625 </threshold>
							<split pos="left">
								<output> 0.9997218251228333 </output>
							</split>
							<split pos="right">
								<feature> 7 </feature>
								<threshold> 0.6875 </threshold>
								<split pos="left">
									<output> 0.9934211373329163 </output>
								</split>
								<split pos="right">
									<output> 0.9870551228523254 </output>
								</split>
							</split>
						</split>
						<split pos="right">
							<output> -1.0129177570343018 </output>
						</split>
					</split>
				</split>
			</split>
		</split>
	</tree>
	<tree id="26" weight="0.1">
		<split>
			<feature> 23 </feature>
			<threshold> 0.40234375 </threshold>
			<split pos="left">
				<feature> 34 </feature>
				<threshold> 0.828125 </threshold>
				<split pos="left">
					<output> -0.9496307969093323 </output>
				</split>
				<split pos="right">
					<feature> 16 </feature>
					<threshold> 0.40684393 </threshold>
					<split pos="left">
						<output> 0.9038782119750977 </output>
					</split>
					<split pos="right">
						<output> 0.36944642663002014 </output>
					</split>
				</split>
			</split>
			<split pos="right">
				<feature> 7 </feature>
				<threshold> 0.51171875 </threshold>
				<split pos="left">
					<output> 0.9940212965011597 </output>
				</split>
				<split pos="right">
					<feature> 27 </feature>
					<threshold> 0.5390625 </threshold>
					<split pos="left">
						<feature> 7 </feature>
						<threshold> 0.61328125 </threshold>
						<split pos="left">
							<output> 0.9079680442810059 </output>
						</split>
						<split pos="right">
							<output> 0.635388970375061 </output>
						</split>
					</split>
					<split pos="right">
						<feature> 10 </feature>
						<threshold> 0.9921913 </threshold>
						<split pos="left">
							<feature> 1 </feature>
							<threshold> 0.12207031 </threshold>
							<split pos="left">
								<output> 0.9971250891685486 </output>
							</split>
							<split pos="right">
								<feature> 24 </feature>
								<threshold> 0.69921875 </threshold>
								<split pos="left">
									<output> 0.8896834850311279 </output>
								</split>
								<split pos="right">
									<output> 1.0302560329437256 </output>
								</split>
							</split>
						</split>
						<split pos="right">
							<output> -1.010895013809204 </output>
						</split>
					</split>
				</split>
			</split>
		</split>
	</tree>
	<tree id="27" weight="0.1">
		<split>
			<feature> 35 </feature>
			<threshold> 0.828125 </threshold>
			<split pos="left">
				<feature> 23 </feature>
				<threshold> 0.39453125 </threshold>
				<split pos="left">
					<output> -0.8905153274536133 </output>
				</split>
				<split pos="right">
					<output> 0.5844885110855103 </output>
				</split>
			</split>
			<split pos="right">
				<feature> 11 </feature>
				<threshold> 0.99219203 </threshold>
				<split pos="left">
					<feature> 24 </feature>
					<threshold> 0.6953125 </threshold>
					<split pos="left">
						<feature> 7 </feature>
						<threshold> 0.609375 </threshold>
						<split pos="left">
							<feature> 5 </feature>
							<threshold> 0.01953125 </threshold>
							<split pos="left">
								<output> 0.8975015878677368 </output>
							</split>
							<split pos="right">
								<feature> 25 </feature>
								<threshold> 0.25390625 </threshold>
								<split pos="left">
									<output> 1.0158448219299316 </output>
								</split>
								<split pos="right">
									<feature> 7 </feature>
									<threshold> 0.4765625 </threshold>
									<split pos="left">
										<output> 1.015587329864502 </output>
									</split>
									<split pos="right">
										<output> 0.9658393263816833 </output>
									</split>
								</split>
							</split>
						</split>
						<split pos="right">
							<feature> 16 </feature>
							<threshold> 0.35611343 </threshold>
							<split pos="left">
								<output> 1.0285115242004395 </output>
							</split>
							<split pos="right">
								<output> 0.7601134181022644 </output>
							</split>
						</split>
					</split>
					<split pos="right">
						<output> 1.027160406112671 </output>
					</split>
				</split>
				<split pos="right">
					<output> -1.009758710861206 </output>
				</split>
			</split>
		</split>
	</tree>
	<tree id="28" weight="0.1">
		<split>
			<feature> 23 </feature>
			<threshold> 0.39453125 </threshold>
			<split pos="left">
				<feature> 35 </feature>
				<threshold> 0.828125 </threshold>
				<split pos="left">
					<output> -0.9129809141159058 </output>
				</split>
				<split pos="right">
					<feature> 36 </feature>
					<threshold> 0.46484375 </threshold>
					<split pos="left">
						<output> 1.8219754695892334 </output>
					</split>
					<split pos="right">
						<feature> 20 </feature>
						<threshold> 0.45703125 </threshold>
						<split pos="left">
							<output> 0.9099564552307129 </output>
						</split>
						<split pos="right">
							<output> 1.74371337890625 </output>
						</split>
					</split>
				</split>
			</split>
			<split pos="right">
				<feature> 7 </feature>
				<threshold> 0.49609375 </threshold>
				<split pos="left">
					<feature> 27 </feature>
					<threshold> 0.3125 </threshold>
					<split pos="left">
						<output> 1.4979276657104492 </output>
					</split>
					<split pos="right">
						<feature> 26 </feature>
						<threshold> 0.3203125 </threshold>
						<split pos="left">
							<output> 1.4895421266555786 </output>
						</split>
						<split pos="right">
							<output> 1.065111517906189 </output>
						</split>
					</split>
				</split>
				<split pos="right">
					<feature> 27 </feature>
					<threshold> 0.5390625 </threshold>
					<split pos="left">
						<output> 0.6076784133911133 </output>
					</split>
					<split pos="right">
						<feature> 4 </feature>
						<threshold> 0.9921875 </threshold>
						<split pos="left">
							<output> 0.9631609320640564 </output>
						</split>
						<split pos="right">
							<output> -1.0085620880126953 </output>
						</split>
					</split>
				</split>
			</split>
		</split>
	</tree>
	<tree id="29" weight="0.1">
		<split>
			<feature> 35 </feature>
			<threshold> 0.828125 </threshold>
			<split pos="left">
				<feature> 5 </feature>
				<threshold> 0.39453125 </threshold>
				<split pos="left">
					<output> -0.7956822514533997 </output>
				</split>
				<split pos="right">
					<feature> 17 </feature>
					<threshold> 0.40317988 </threshold>
					<split pos="left">
						<feature> 35 </feature>
						<threshold> 0.3828125 </threshold>
						<split pos="left">
							<output> 1.6745012998580933 </output>
						</split>
						<split pos="right">
							<output> -1.106918454170227 </output>
						</split>
					</split>
					<split pos="right">
						<output> 0.8388174772262573 </output>
					</split>
				</split>
			</split>
			<split pos="right">
				<feature> 17 </feature>
				<threshold> 0.9921956 </threshold>
				<split pos="left">
					<feature> 13 </feature>
					<threshold> 0.53125 </threshold>
					<split pos="left">
						<feature> 36 </feature>
						<threshold> 0.46484375 </threshold>
						<split pos="left">
							<output> 1.6265301704406738 </output>
						</split>
						<split pos="right">
							<feature> 5 </feature>
							<threshold> 0.01953125 </threshold>
							<split pos="left">
								<output> 0.8419920206069946 </output>
							</split>
							<split pos="right">
								<output> 1.0473309755325317 </output>
							</split>
						</split>
					</split>
					<split pos="right">
						<feature> 24 </feature>
						<threshold> 0.6953125 </threshold>
						<split pos="left">
							<output> 0.6805877089500427 </output>
						</split>
						<split pos="right">
							<output> 1.0385777950286865 </output>
						</split>
					</split>
				</split>
				<split pos="right">
					<output> -1.0139236450195312 </output>
				</split>
			</split>
		</split>
	</tree>
	<tree id="30" weight="0.1">
		<split>
			<feature> 26 </feature>
			<threshold> 0.2890625 </threshold>
			<split pos="left">
				<output> -0.8598083257675171 </output>
			</split>
			<split pos="right">
				<feature> 7 </feature>
				<threshold> 0.49609375 </threshold>
				<split pos="left">
					<feature> 13 </feature>
					<threshold> 0.46484375 </threshold>
					<split pos="left">
						<output> 1.0955238342285156 </output>
					</split>
					<split pos="right">
						<feature> 26 </feature>
						<threshold> 0.3203125 </threshold>
						<split pos="left">
							<output> 1.485481858253479 </output>
						</split>
						<split pos="right">
							<output> 1.087600588798523 </output>
						</split>
					</split>
				</split>
				<split pos="right">
					<feature> 21 </feature>
					<threshold> 0.34375 </threshold>
					<split pos="left">
						<feature> 5 </feature>
						<threshold> 0.4296875 </threshold>
						<split pos="left">
							<output> -1.004289984703064 </output>
						</split>
						<split pos="right">
							<output> 1.849207878112793 </output>
						</split>
					</split>
					<split pos="right">
						<feature> 25 </feature>
						<threshold> 0.65234375 </threshold>
						<split pos="left">
							<feature> 5 </feature>
							<threshold> 0.2578125 </threshold>
							<split pos="left">
								<output> 0.526745080947876 </output>
							</split>
							<split pos="right">
								<feature> 3 </feature>
								<threshold> 0.58064413 </threshold>
								<split pos="left">
									<output> 0.8837515115737915 </output>
								</split>
								<split pos="right">
									<output> 1.4956859350204468 </output>
								</split>
							</split>
						</split>
						<split pos="right">
							<output> 1.0137736797332764 </output>
						</split>
					</split>
				</split>
			</split>
		</split>
	</tree>
	<tree id="31" weight="0.1">
		<split>
			<feature> 26 </feature>
			<threshold> 0.2890625 </threshold>
			<split pos="left">
				<output> -1.0531408786773682 </output>
			</split>
			<split pos="right">
				<feature> 7 </feature>
				<threshold> 0.35546875 </threshold>
				<split pos="left">
					<feature> 5 </feature>
					<threshold> 0.3515625 </threshold>
					<split pos="left">
						<output> 1.0142165422439575 </output>
					</split>
					<split pos="right">
						<output> 1.8223490715026855 </output>
					</split>
				</split>
				<split pos="right">
					<feature> 7 </feature>
					<threshold> 0.44140625 </threshold>
					<split pos="left">
						<feature> 2 </feature>
						<threshold> 0.6403291 </threshold>
						<split pos="left">
							<feature> 20 </feature>
							<threshold> 0.3984375 </threshold>
							<split pos="left">
								<output> 0.9558349251747131 </output>
							</split>
							<split pos="right">
								<feature> 17 </feature>
								<threshold> 0.38757682 </threshold>
								<split pos="left">
									<feature> 7 </feature>
									<threshold> 0.4140625 </threshold>
									<split pos="left">
										<output> 1.8223344087600708 </output>
									</split>
									<split pos="right">
										<output> 1.8088055849075317 </output>
									</split>
								</split>
								<split pos="right">
									<output> 1.3254424333572388 </output>
								</split>
							</split>
						</split>
						<split pos="right">
							<output> 1.82139253616333 </output>
						</split>
					</split>
					<split pos="right">
						<feature> 18 </feature>
						<threshold> 0.51171875 </threshold>
						<split pos="left">
							<output> 1.3398429155349731 </output>
						</split>
						<split pos="right">
							<output> 0.8330459594726562 </output>
						</split>
					</split>
				</split>
			</split>
		</split>
	</tree>
	<tree id="32" weight="0.1">
		<split>
			<feature> 26 </feature>
			<threshold> 0.2890625 </threshold>
			<split pos="left">
				<output> -0.9874767065048218 </output>
			</split>
			<split pos="right">
				<feature> 7 </feature>
				<threshold> 0.35546875 </threshold>
				<split pos="left">
					<feature> 1 </feature>
					<threshold> 0.068359375 </threshold>
					<split pos="left">
						<output> 1.616844892501831 </output>
					</split>
					<split pos="right">
						<output> 1.0133486986160278 </output>
					</split>
				</split>
				<split pos="right">
					<feature> 7 </feature>
					<threshold> 0.44140625 </threshold>
					<split pos="left">
						<feature> 2 </feature>
						<threshold> 0.6403291 </threshold>
						<split pos="left">
							<feature> 20 </feature>
							<threshold> 0.3984375 </threshold>
							<split pos="left">
								<output> 0.9399056434631348 </output>
							</split>
							<split pos="right">
								<feature> 36 </feature>
								<threshold> 0.671875 </threshold>
								<split pos="left">
									<feature> 1 </feature>
									<threshold> 0.36132812 </threshold>
									<split pos="left">
										<feature> 2 </feature>
										<threshold> 0.5231452 </threshold>
										<split pos="left">
											<output> 1.6163092851638794 </output>
										</split>
										<split pos="right">
											<output> 1.616835117340088 </output>
										</split>
									</split>
									<split pos="right">
										<output> 1.5689215660095215 </output>
									</split>
								</split>
								<split pos="right">
									<output> 0.982425332069397 </output>
								</split>
							</split>
						</split>
						<split pos="right">
							<output> 1.6159756183624268 </output>
						</split>
					</split>
					<split pos="right">
						<output> 0.8627263307571411 </output>
					</split>
				</split>
			</split>
		</split>
	</tree>
	<tree id="33" weight="0.1">
		<split>
			<feature> 26 </feature>
			<threshold> 0.2890625 </threshold>
			<split pos="left">
				<output> -0.9325548410415649 </output>
			</split>
			<split pos="right">
				<feature> 7 </feature>
				<threshold> 0.35546875 </threshold>
				<split pos="left">
					<feature> 5 </feature>
					<threshold> 0.3515625 </threshold>
					<split pos="left">
						<output> 1.0129272937774658 </output>
					</split>
					<split pos="right">
						<output> 1.4754142761230469 </output>
					</split>
				</split>
				<split pos="right">
					<feature> 7 </feature>
					<threshold> 0.44140625 </threshold>
					<split pos="left">
						<feature> 2 </feature>
						<threshold> 0.6403291 </threshold>
						<split pos="left">
							<feature> 20 </feature>
							<threshold> 0.3984375 </threshold>
							<split pos="left">
								<output> 0.924413800239563 </output>
							</split>
							<split pos="right">
								<feature> 34 </feature>
								<threshold> 0.69140625 </threshold>
								<split pos="left">
									<feature> 1 </feature>
									<threshold> 0.36132812 </threshold>
									<split pos="left">
										<output> 1.4750505685806274 </output>
									</split>
									<split pos="right">
										<output> 1.4406328201293945 </output>
									</split>
								</split>
								<split pos="right">
									<output> 0.9732556939125061 </output>
								</split>
							</split>
						</split>
						<split pos="right">
							<output> 1.4745526313781738 </output>
						</split>
					</split>
					<split pos="right">
						<feature> 18 </feature>
						<threshold> 0.51171875 </threshold>
						<split pos="left">
							<output> 1.21233069896698 </output>
						</split>
						<split pos="right">
							<output> 0.7533043622970581 </output>
						</split>
					</split>
				</split>
			</split>
		</split>
	</tree>
	<tree id="34" weight="0.1">
		<split>
			<feature> 22 </feature>
			<threshold> 0.32421875 </threshold>
			<split pos="left">
				<output> -0.9831645488739014 </output>
			</split>
			<split pos="right">
				<feature> 7 </feature>
				<threshold> 0.35546875 </threshold>
				<split pos="left">
					<feature> 1 </feature>
					<threshold> 0.068359375 </threshold>
					<split pos="left">
						<output> 1.3736765384674072 </output>
					</split>
					<split pos="right">
						<output> 1.0507773160934448 </output>
					</split>
				</split>
				<split pos="right">
					<feature> 7 </feature>
					<threshold> 0.44140625 </threshold>
					<split pos="left">
						<feature> 2 </feature>
						<threshold> 0.6403291 </threshold>
						<split pos="left">
							<feature> 20 </feature>
							<threshold> 0.3984375 </threshold>
							<split pos="left">
								<output> 1.0139799118041992 </output>
							</split>
							<split pos="right">
								<feature> 34 </feature>
								<threshold> 0.69140625 </threshold>
								<split pos="left">
									<feature> 1 </feature>
									<threshold> 0.29296875 </threshold>
									<split pos="left">
										<output> 1.372833251953125 </output>
									</split>
									<split pos="right">
										<output> 1.3659244775772095 </output>
									</split>
								</split>
								<split pos="right">
									<output> 0.9600125551223755 </output>
								</split>
							</split>
						</split>
						<split pos="right">
							<output> 1.3727771043777466 </output>
						</split>
					</split>
					<split pos="right">
						<feature> 21 </feature>
						<threshold> 0.34375 </threshold>
						<split pos="left">
							<output> 1.3411996364593506 </output>
						</split>
						<split pos="right">
							<output> 0.7709723114967346 </output>
						</split>
					</split>
				</split>
			</split>
		</split>
	</tree>
	<tree id="35" weight="0.1">
		<split>
			<feature> 22 </feature>
			<threshold> 0.32421875 </threshold>
			<split pos="left">
				<output> -1.1137244701385498 </output>
			</split>
			<split pos="right">
				<feature> 7 </feature>
				<threshold> 0.35546875 </threshold>
				<split pos="left">
					<output> 1.2940278053283691 </output>
				</split>
				<split pos="right">
					<feature> 7 </feature>
					<threshold> 0.48046875 </threshold>
					<split pos="left">
						<feature> 26 </feature>
						<threshold> 0.25390625 </threshold>
						<split pos="left">
							<output> 1.7164525985717773 </output>
						</split>
						<split pos="right">
							<output> 1.26682710647583 </output>
						</split>
					</split>
					<split pos="right">
						<feature> 27 </feature>
						<threshold> 0.18359375 </threshold>
						<split pos="left">
							<output> 1.6641769409179688 </output>
						</split>
						<split pos="right">
							<feature> 26 </feature>
							<threshold> 0.26953125 </threshold>
							<split pos="left">
								<feature> 22 </feature>
								<threshold> 0.359375 </threshold>
								<split pos="left">
									<output> 1.1110352277755737 </output>
								</split>
								<split pos="right">
									<feature> 33 </feature>
									<threshold> 0.61328125 </threshold>
									<split pos="left">
										<output> 1.8388336896896362 </output>
									</split>
									<split pos="right">
										<feature> 34 </feature>
										<threshold> 0.6640625 </threshold>
										<split pos="left">
											<output> 1.836199164390564 </output>
										</split>
										<split pos="right">
											<output> 1.019140601158142 </output>
										</split>
									</split>
								</split>
							</split>
							<split pos="right">
								<output> 0.7247110605239868 </output>
							</split>
						</split>
					</split>
				</split>
			</split>
		</split>
	</tree>
	<tree id="36" weight="0.1">
		<split>
			<feature> 22 </feature>
			<threshold> 0.32421875 </threshold>
			<split pos="left">
				<output> -1.0462995767593384 </output>
			</split>
			<split pos="right">
				<feature> 7 </feature>
				<threshold> 0.35546875 </threshold>
				<split pos="left">
					<output> 1.2311766147613525 </output>
				</split>
				<split pos="right">
					<feature> 7 </feature>
					<threshold> 0.48046875 </threshold>
					<split pos="left">
						<feature> 26 </feature>
						<threshold> 0.25390625 </threshold>
						<split pos="left">
							<output> 1.5570838451385498 </output>
						</split>
						<split pos="right">
							<output> 1.208735704421997 </output>
						</split>
					</split>
					<split pos="right">
						<feature> 27 </feature>
						<threshold> 0.18359375 </threshold>
						<split pos="left">
							<output> 1.5230685472488403 </output>
						</split>
						<split pos="right">
							<feature> 26 </feature>
							<threshold> 0.26953125 </threshold>
							<split pos="left">
								<feature> 22 </feature>
								<threshold> 0.359375 </threshold>
								<split pos="left">
									<output> 1.0247471332550049 </output>
								</split>
								<split pos="right">
									<feature> 33 </feature>
									<threshold> 0.6015625 </threshold>
									<split pos="left">
										<output> 1.6243842840194702 </output>
									</split>
									<split pos="right">
										<feature> 34 </feature>
										<threshold> 0.6640625 </threshold>
										<split pos="left">
											<output> 1.6217527389526367 </output>
										</split>
										<split pos="right">
											<output> 0.9501163959503174 </output>
										</split>
									</split>
								</split>
							</split>
							<split pos="right">
								<output> 0.6733853816986084 </output>
							</split>
						</split>
					</split>
				</split>
			</split>
		</split>
	</tree>
	<tree id="37" weight="0.1">
		<split>
			<feature> 22 </feature>
			<threshold> 0.3203125 </threshold>
			<split pos="left">
				<output> -1.0083980560302734 </output>
			</split>
			<split pos="right">
				<feature> 7 </feature>
				<threshold> 0.35546875 </threshold>
				<split pos="left">
					<output> 1.1771842241287231 </output>
				</split>
				<split pos="right">
					<feature> 7 </feature>
					<threshold> 0.48046875 </threshold>
					<split pos="left">
						<feature> 26 </feature>
						<threshold> 0.25390625 </threshold>
						<split pos="left">
							<output> 1.4375145435333252 </output>
						</split>
						<split pos="right">
							<output> 1.1599555015563965 </output>
						</split>
					</split>
					<split pos="right">
						<feature> 27 </feature>
						<threshold> 0.18359375 </threshold>
						<split pos="left">
							<output> 1.4104374647140503 </output>
						</split>
						<split pos="right">
							<feature> 26 </feature>
							<threshold> 0.26953125 </threshold>
							<split pos="left">
								<feature> 22 </feature>
								<threshold> 0.359375 </threshold>
								<split pos="left">
									<output> 0.964390218257904 </output>
								</split>
								<split pos="right">
									<feature> 33 </feature>
									<threshold> 0.6171875 </threshold>
									<split pos="left">
										<output> 1.478045105934143 </output>
									</split>
									<split pos="right">
										<feature> 34 </feature>
										<threshold> 0.6640625 </threshold>
										<split pos="left">
											<output> 1.475204348564148 </output>
										</split>
										<split pos="right">
											<output> 0.8897996544837952 </output>
										</split>
									</split>
								</split>
							</split>
							<split pos="right">
								<output> 0.6275861263275146 </output>
							</split>
						</split>
					</split>
				</split>
			</split>
		</split>
	</tree>
	<tree id="38" weight="0.1">
		<split>
			<feature> 22 </feature>
			<threshold> 0.3203125 </threshold>
			<split pos="left">
				<output> -0.9551268815994263 </output>
			</split>
			<split pos="right">
				<feature> 7 </feature>
				<threshold> 0.35546875 </threshold>
				<split pos="left">
					<output> 1.142773985862732 </output>
				</split>
				<split pos="right">
					<feature> 7 </feature>
					<threshold> 0.48046875 </threshold>
					<split pos="left">
						<feature> 26 </feature>
						<threshold> 0.25390625 </threshold>
						<split pos="left">
							<output> 1.356295108795166 </output>
						</split>
						<split pos="right">
							<output> 1.118954062461853 </output>
						</split>
					</split>
					<split pos="right">
						<feature> 27 </feature>
						<threshold> 0.18359375 </threshold>
						<split pos="left">
							<output> 1.3269062042236328 </output>
						</split>
						<split pos="right">
							<feature> 27 </feature>
							<threshold> 0.2734375 </threshold>
							<split pos="left">
								<feature> 22 </feature>
								<threshold> 0.359375 </threshold>
								<split pos="left">
									<output> 0.9335654973983765 </output>
								</split>
								<split pos="right">
									<feature> 33 </feature>
									<threshold> 0.6015625 </threshold>
									<split pos="left">
										<output> 1.3728092908859253 </output>
									</split>
									<split pos="right">
										<feature> 3 </feature>
										<threshold> 0.631857 </threshold>
										<split pos="left">
											<output> 1.2968475818634033 </output>
										</split>
										<split pos="right">
											<output> 1.3731259107589722 </output>
										</split>
									</split>
								</split>
							</split>
							<split pos="right">
								<output> 0.5811150670051575 </output>
							</split>
						</split>
					</split>
				</split>
			</split>
		</split>
	</tree>
	<tree id="39" weight="0.1">
		<split>
			<feature> 22 </feature>
			<threshold> 0.3203125 </threshold>
			<split pos="left">
				<output> -0.9099891185760498 </output>
			</split>
			<split pos="right">
				<feature> 7 </feature>
				<threshold> 0.35546875 </threshold>
				<split pos="left">
					<output> 1.1159261465072632 </output>
				</split>
				<split pos="right">
					<feature> 7 </feature>
					<threshold> 0.48046875 </threshold>
					<split pos="left">
						<feature> 26 </feature>
						<threshold> 0.25390625 </threshold>
						<split pos="left">
							<output> 1.2861706018447876 </output>
						</split>
						<split pos="right">
							<output> 1.0838629007339478 </output>
						</split>
					</split>
					<split pos="right">
						<feature> 27 </feature>
						<threshold> 0.18359375 </threshold>
						<split pos="left">
							<output> 1.2616596221923828 </output>
						</split>
						<split pos="right">
							<feature> 27 </feature>
							<threshold> 0.2734375 </threshold>
							<split pos="left">
								<feature> 22 </feature>
								<threshold> 0.359375 </threshold>
								<split pos="left">
									<output> 0.8901804685592651 </output>
								</split>
								<split pos="right">
									<feature> 33 </feature>
									<threshold> 0.6015625 </threshold>
									<split pos="left">
										<output> 1.2953847646713257 </output>
									</split>
									<split pos="right">
										<feature> 3 </feature>
										<threshold> 0.631857 </threshold>
										<split pos="left">
											<output> 1.2232166528701782 </output>
										</split>
										<split pos="right">
											<output> 1.2956140041351318 </output>
										</split>
									</split>
								</split>
							</split>
							<split pos="right">
								<output> 0.5393337607383728 </output>
							</split>
						</split>
					</split>
				</split>
			</split>
		</split>
	</tree>
	<tree id="40" weight="0.1">
		<split>
			<feature> 22 </feature>
			<threshold> 0.3203125 </threshold>
			<split pos="left">
				<output> -0.8475661277770996 </output>
			</split>
			<split pos="right">
				<feature> 7 </feature>
				<threshold> 0.35546875 </threshold>
				<split pos="left">
					<output> 1.0946632623672485 </output>
				</split>
				<split pos="right">
					<feature> 7 </feature>
					<threshold> 0.48046875 </threshold>
					<split pos="left">
						<feature> 26 </feature>
						<threshold> 0.25390625 </threshold>
						<split pos="left">
							<output> 1.231890082359314 </output>
						</split>
						<split pos="right">
							<output> 1.0522797107696533 </output>
						</split>
					</split>
					<split pos="right">
						<feature> 27 </feature>
						<threshold> 0.18359375 </threshold>
						<split pos="left">
							<output> 1.2100164890289307 </output>
						</split>
						<split pos="right">
							<feature> 27 </feature>
							<threshold> 0.2734375 </threshold>
							<split pos="left">
								<feature> 22 </feature>
								<threshold> 0.359375 </threshold>
								<split pos="left">
									<output> 0.8385151624679565 </output>
								</split>
								<split pos="right">
									<feature> 33 </feature>
									<threshold> 0.60546875 </threshold>
									<split pos="left">
										<output> 1.236925482749939 </output>
									</split>
									<split pos="right">
										<feature> 3 </feature>
										<threshold> 0.631857 </threshold>
										<split pos="left">
											<output> 1.1616102457046509 </output>
										</split>
										<split pos="right">
											<output> 1.2370891571044922 </output>
										</split>
									</split>
								</split>
							</split>
							<split pos="right">
								<output> 0.5000419020652771 </output>
							</split>
						</split>
					</split>
				</split>
			</split>
		</split>
	</tree>
	<tree id="41" weight="0.1">
		<split>
			<feature> 22 </feature>
			<threshold> 0.3203125 </threshold>
			<split pos="left">
				<output> -0.8033533096313477 </output>
			</split>
			<split pos="right">
				<feature> 7 </feature>
				<threshold> 0.35546875 </threshold>
				<split pos="left">
					<output> 1.0777674913406372 </output>
				</split>
				<split pos="right">
					<feature> 7 </feature>
					<threshold> 0.48046875 </threshold>
					<split pos="left">
						<feature> 26 </feature>
						<threshold> 0.25390625 </threshold>
						<split pos="left">
							<output> 1.1897251605987549 </output>
						</split>
						<split pos="right">
							<output> 1.023020625114441 </output>
						</split>
					</split>
					<split pos="right">
						<feature> 27 </feature>
						<threshold> 0.18359375 </threshold>
						<split pos="left">
							<output> 1.1689475774765015 </output>
						</split>
						<split pos="right">
							<feature> 27 </feature>
							<threshold> 0.2734375 </threshold>
							<split pos="left">
								<feature> 22 </feature>
								<threshold> 0.359375 </threshold>
								<split pos="left">
									<output> 0.7858525514602661 </output>
								</split>
								<split pos="right">
									<feature> 33 </feature>
									<threshold> 0.6015625 </threshold>
									<split pos="left">
										<output> 1.1923468112945557 </output>
									</split>
									<split pos="right">
										<feature> 3 </feature>
										<threshold> 0.631857 </threshold>
										<split pos="left">
											<output> 1.1100966930389404 </output>
										</split>
										<split pos="right">
											<output> 1.192459225654602 </output>
										</split>
									</split>
								</split>
							</split>
							<split pos="right">
								<output> 0.46391239762306213 </output>
							</split>
						</split>
					</split>
				</split>
			</split>
		</split>
	</tree>
	<tree id="42" weight="0.1">
		<split>
			<feature> 22 </feature>
			<threshold> 0.3203125 </threshold>
			<split pos="left">
				<output> -0.7526299953460693 </output>
			</split>
			<split pos="right">
				<feature> 7 </feature>
				<threshold> 0.35546875 </threshold>
				<split pos="left">
					<output> 1.064039945602417 </output>
				</split>
				<split pos="right">
					<feature> 7 </feature>
					<threshold> 0.48046875 </threshold>
					<split pos="left">
						<output> 1.0396403074264526 </output>
					</split>
					<split pos="right">
						<feature> 27 </feature>
						<threshold> 0.18359375 </threshold>
						<split pos="left">
							<output> 1.1354928016662598 </output>
						</split>
						<split pos="right">
							<feature> 26 </feature>
							<threshold> 0.26953125 </threshold>
							<split pos="left">
								<feature> 22 </feature>
								<threshold> 0.359375 </threshold>
								<split pos="left">
									<output> 0.6951572895050049 </output>
								</split>
								<split pos="right">
									<feature> 33 </feature>
									<threshold> 0.6015625 </threshold>
									<split pos="left">
										<output> 1.157548427581787 </output>
									</split>
									<split pos="right">
										<feature> 34 </feature>
										<threshold> 0.6640625 </threshold>
										<split pos="left">
											<output> 1.1557986736297607 </output>
										</split>
										<split pos="right">
											<output> 0.5043247938156128 </output>
										</split>
									</split>
								</split>
							</split>
							<split pos="right">
								<feature> 23 </feature>
								<threshold> 0.7109375 </threshold>
								<split pos="left">
									<output> 0.07631921768188477 </output>
								</split>
								<split pos="right">
									<output> 1.0698593854904175 </output>
								</split>
							</split>
						</split>
					</split>
				</split>
			</split>
		</split>
	</tree>
	<tree id="43" weight="0.1">
		<split>
			<feature> 22 </feature>
			<threshold> 0.31640625 </threshold>
			<split pos="left">
				<output> -0.769436776638031 </output>
			</split>
			<split pos="right">
				<feature> 7 </feature>
				<threshold> 0.35546875 </threshold>
				<split pos="left">
					<output> 1.051164984703064 </output>
				</split>
				<split pos="right">
					<feature> 7 </feature>
					<threshold> 0.48046875 </threshold>
					<split pos="left">
						<output> 1.013452172279358 </output>
					</split>
					<split pos="right">
						<feature> 27 </feature>
						<threshold> 0.18359375 </threshold>
						<split pos="left">
							<output> 1.0986542701721191 </output>
						</split>
						<split pos="right">
							<feature> 23 </feature>
							<threshold> 0.7109375 </threshold>
							<split pos="left">
								<feature> 25 </feature>
								<threshold> 0.3671875 </threshold>
								<split pos="left">
									<feature> 5 </feature>
									<threshold> 0.19921875 </threshold>
									<split pos="left">
										<output> 0.6816391348838806 </output>
									</split>
									<split pos="right">
										<feature> 34 </feature>
										<threshold> 0.6796875 </threshold>
										<split pos="left">
											<feature> 5 </feature>
											<threshold> 0.203125 </threshold>
											<split pos="left">
												<output> 1.1325905323028564 </output>
											</split>
											<split pos="right">
												<output> 1.11358642578125 </output>
											</split>
										</split>
										<split pos="right">
											<output> 0.6487739682197571 </output>
										</split>
									</split>
								</split>
								<split pos="right">
									<output> -0.23677125573158264 </output>
								</split>
							</split>
							<split pos="right">
								<output> 1.045626163482666 </output>
							</split>
						</split>
					</split>
				</split>
			</split>
		</split>
	</tree>
	<tree id="44" weight="0.1">
		<split>
			<feature> 22 </feature>
			<threshold> 0.31640625 </threshold>
			<split pos="left">
				<output> -0.8939497470855713 </output>
			</split>
			<split pos="right">
				<feature> 24 </feature>
				<threshold> 0.265625 </threshold>
				<split pos="left">
					<feature> 25 </feature>
					<threshold> 0.29296875 </threshold>
					<split pos="left">
						<output> 1.5019837617874146 </output>
					</split>
					<split pos="right">
						<feature> 26 </feature>
						<threshold> 0.21875 </threshold>
						<split pos="left">
							<output> 0.9127069115638733 </output>
						</split>
						<split pos="right">
							<feature> 4 </feature>
							<threshold> 0.0 </threshold>
							<split pos="left">
								<output> 0.0 </output>
							</split>
							<split pos="right">
								<output> 1.8648492097854614 </output>
							</split>
						</split>
					</split>
				</split>
				<split pos="right">
					<feature> 7 </feature>
					<threshold> 0.44140625 </threshold>
					<split pos="left">
						<feature> 27 </feature>
						<threshold> 0.234375 </threshold>
						<split pos="left">
							<output> 1.7352395057678223 </output>
						</split>
						<split pos="right">
							<output> 1.0734689235687256 </output>
						</split>
					</split>
					<split pos="right">
						<feature> 27 </feature>
						<threshold> 0.18359375 </threshold>
						<split pos="left">
							<output> 1.1012593507766724 </output>
						</split>
						<split pos="right">
							<feature> 27 </feature>
							<threshold> 0.2734375 </threshold>
							<split pos="left">
								<output> 1.0381250381469727 </output>
							</split>
							<split pos="right">
								<output> 0.38494640588760376 </output>
							</split>
						</split>
					</split>
				</split>
			</split>
		</split>
	</tree>
	<tree id="45" weight="0.1">
		<split>
			<feature> 22 </feature>
			<threshold> 0.31640625 </threshold>
			<split pos="left">
				<output> -0.8315871357917786 </output>
			</split>
			<split pos="right">
				<feature> 24 </feature>
				<threshold> 0.265625 </threshold>
				<split pos="left">
					<feature> 25 </feature>
					<threshold> 0.29296875 </threshold>
					<split pos="left">
						<output> 1.3821550607681274 </output>
					</split>
					<split pos="right">
						<feature> 26 </feature>
						<threshold> 0.21875 </threshold>
						<split pos="left">
							<output> 0.8890799880027771 </output>
						</split>
						<split pos="right">
							<feature> 2 </feature>
							<threshold> 0.4519975 </threshold>
							<split pos="left">
								<output> 1.656339168548584 </output>
							</split>
							<split pos="right">
								<output> 0.0 </output>
							</split>
						</split>
					</split>
				</split>
				<split pos="right">
					<feature> 7 </feature>
					<threshold> 0.44140625 </threshold>
					<split pos="left">
						<feature> 27 </feature>
						<threshold> 0.234375 </threshold>
						<split pos="left">
							<output> 1.580018162727356 </output>
						</split>
						<split pos="right">
							<output> 1.0480883121490479 </output>
						</split>
					</split>
					<split pos="right">
						<feature> 27 </feature>
						<threshold> 0.18359375 </threshold>
						<split pos="left">
							<output> 1.08147394657135 </output>
						</split>
						<split pos="right">
							<feature> 27 </feature>
							<threshold> 0.2734375 </threshold>
							<split pos="left">
								<output> 0.9992138743400574 </output>
							</split>
							<split pos="right">
								<output> 0.35342586040496826 </output>
							</split>
						</split>
					</split>
				</split>
			</split>
		</split>
	</tree>
	<tree id="46" weight="0.1">
		<split>
			<feature> 22 </feature>
			<threshold> 0.31640625 </threshold>
			<split pos="left">
				<output> -0.7797769904136658 </output>
			</split>
			<split pos="right">
				<feature> 24 </feature>
				<threshold> 0.265625 </threshold>
				<split pos="left">
					<feature> 25 </feature>
					<threshold> 0.29296875 </threshold>
					<split pos="left">
						<output> 1.2871026992797852 </output>
					</split>
					<split pos="right">
						<feature> 26 </feature>
						<threshold> 0.21875 </threshold>
						<split pos="left">
							<output> 0.8614179491996765 </output>
						</split>
						<split pos="right">
							<feature> 1 </feature>
							<threshold> 0.52734375 </threshold>
							<split pos="left">
								<output> 1.5117759704589844 </output>
							</split>
							<split pos="right">
								<output> 0.0 </output>
							</split>
						</split>
					</split>
				</split>
				<split pos="right">
					<feature> 7 </feature>
					<threshold> 0.44140625 </threshold>
					<split pos="left">
						<output> 1.0948560237884521 </output>
					</split>
					<split pos="right">
						<feature> 27 </feature>
						<threshold> 0.18359375 </threshold>
						<split pos="left">
							<output> 1.0654003620147705 </output>
						</split>
						<split pos="right">
							<feature> 23 </feature>
							<threshold> 0.7109375 </threshold>
							<split pos="left">
								<feature> 27 </feature>
								<threshold> 0.2734375 </threshold>
								<split pos="left">
									<output> 0.9596624970436096 </output>
								</split>
								<split pos="right">
									<output> -0.037431586533784866 </output>
								</split>
							</split>
							<split pos="right">
								<output> 1.012377381324768 </output>
							</split>
						</split>
					</split>
				</split>
			</split>
		</split>
	</tree>
	<tree id="47" weight="0.1">
		<split>
			<feature> 22 </feature>
			<threshold> 0.296875 </threshold>
			<split pos="left">
				<output> -0.8089264035224915 </output>
			</split>
			<split pos="right">
				<feature> 27 </feature>
				<threshold> 0.1640625 </threshold>
				<split pos="left">
					<output> 1.4572089910507202 </output>
				</split>
				<split pos="right">
					<feature> 26 </feature>
					<threshold> 0.234375 </threshold>
					<split pos="left">
						<feature> 21 </feature>
						<threshold> 0.48046875 </threshold>
						<split pos="left">
							<output> 1.0712966918945312 </output>
						</split>
						<split pos="right">
							<feature> 2 </feature>
							<threshold> 0.43944198 </threshold>
							<split pos="left">
								<output> -0.32844215631484985 </output>
							</split>
							<split pos="right">
								<feature> 4 </feature>
								<threshold> 0.23046875 </threshold>
								<split pos="left">
									<output> -1.1101683378219604 </output>
								</split>
								<split pos="right">
									<output> 1.4069676399230957 </output>
								</split>
							</split>
						</split>
					</split>
					<split pos="right">
						<feature> 7 </feature>
						<threshold> 0.4765625 </threshold>
						<split pos="left">
							<output> 0.9647146463394165 </output>
						</split>
						<split pos="right">
							<feature> 23 </feature>
							<threshold> 0.70703125 </threshold>
							<split pos="left">
								<feature> 25 </feature>
								<threshold> 0.37109375 </threshold>
								<split pos="left">
									<output> 0.7037348747253418 </output>
								</split>
								<split pos="right">
									<output> -0.3093874752521515 </output>
								</split>
							</split>
							<split pos="right">
								<output> 0.9722613096237183 </output>
							</split>
						</split>
					</split>
				</split>
			</split>
		</split>
	</tree>
	<tree id="48" weight="0.1">
		<split>
			<feature> 22 </feature>
			<threshold> 0.296875 </threshold>
			<split pos="left">
				<output> -1.2168726921081543 </output>
			</split>
			<split pos="right">
				<feature> 7 </feature>
				<threshold> 0.35546875 </threshold>
				<split pos="left">
					<feature> 3 </feature>
					<threshold> 0.49003676 </threshold>
					<split pos="left">
						<feature> 1 </feature>
						<threshold> 0.36621094 </threshold>
						<split pos="left">
							<output> 1.837454915046692 </output>
						</split>
						<split pos="right">
							<output> 3.5842509269714355 </output>
						</split>
					</split>
					<split pos="right">
						<output> 1.3734773397445679 </output>
					</split>
				</split>
				<split pos="right">
					<feature> 24 </feature>
					<threshold> 0.26953125 </threshold>
					<split pos="left">
						<feature> 21 </feature>
						<threshold> 0.48046875 </threshold>
						<split pos="left">
							<output> 1.6440155506134033 </output>
						</split>
						<split pos="right">
							<feature> 2 </feature>
							<threshold> 0.4352568 </threshold>
							<split pos="left">
								<output> 0.7506104111671448 </output>
							</split>
							<split pos="right">
								<feature> 3 </feature>
								<threshold> 0.56488633 </threshold>
								<split pos="left">
									<output> 1.3260809183120728 </output>
								</split>
								<split pos="right">
									<output> -1.004456877708435 </output>
								</split>
							</split>
						</split>
					</split>
					<split pos="right">
						<feature> 7 </feature>
						<threshold> 0.44140625 </threshold>
						<split pos="left">
							<output> 1.1972907781600952 </output>
						</split>
						<split pos="right">
							<output> 0.41469237208366394 </output>
						</split>
					</split>
				</split>
			</split>
		</split>
	</tree>
	<tree id="49" weight="0.1">
		<split>
			<feature> 22 </feature>
			<threshold> 0.296875 </threshold>
			<split pos="left">
				<output> -1.0988802909851074 </output>
			</split>
			<split pos="right">
				<feature> 7 </feature>
				<threshold> 0.35546875 </threshold>
				<split pos="left">
					<feature> 3 </feature>
					<threshold> 0.49003676 </threshold>
					<split pos="left">
						<feature> 1 </feature>
						<threshold> 0.36621094 </threshold>
						<split pos="left">
							<output> 1.6170408725738525 </output>
						</split>
						<split pos="right">
							<output> 2.882272481918335 </output>
						</split>
					</split>
					<split pos="right">
						<output> 1.3195613622665405 </output>
					</split>
				</split>
				<split pos="right">
					<feature> 24 </feature>
					<threshold> 0.26953125 </threshold>
					<split pos="left">
						<feature> 3 </feature>
						<threshold> 0.3363982 </threshold>
						<split pos="left">
							<output> 1.5080093145370483 </output>
						</split>
						<split pos="right">
							<feature> 21 </feature>
							<threshold> 0.48046875 </threshold>
							<split pos="left">
								<output> 1.4832888841629028 </output>
							</split>
							<split pos="right">
								<feature> 2 </feature>
								<threshold> 0.4352568 </threshold>
								<split pos="left">
									<output> 0.690922200679779 </output>
								</split>
								<split pos="right">
									<feature> 4 </feature>
									<threshold> 0.1875 </threshold>
									<split pos="left">
										<output> -1.0038671493530273 </output>
									</split>
									<split pos="right">
										<output> 1.252863883972168 </output>
									</split>
								</split>
							</split>
						</split>
					</split>
					<split pos="right">
						<output> 0.44106799364089966 </output>
					</split>
				</split>
			</split>
		</split>
	</tree>
	<tree id="50" weight="0.1">
		<split>
			<feature> 22 </feature>
			<threshold> 0.296875 </threshold>
			<split pos="left">
				<output> -1.0132960081100464 </output>
			</split>
			<split pos="right">
				<feature> 7 </feature>
				<threshold> 0.35546875 </threshold>
				<split pos="left">
					<feature> 3 </feature>
					<threshold> 0.49003676 </threshold>
					<split pos="left">
						<feature> 1 </feature>
						<threshold> 0.36621094 </threshold>
						<split pos="left">
							<output> 1.4702872037887573 </output>
						</split>
						<split pos="right">
							<output> 2.474559783935547 </output>
						</split>
					</split>
					<split pos="right">
						<output> 1.2697564363479614 </output>
					</split>
				</split>
				<split pos="right">
					<feature> 26 </feature>
					<threshold> 0.2578125 </threshold>
					<split pos="left">
						<feature> 5 </feature>
						<threshold> 0.5 </threshold>
						<split pos="left">
							<feature> 7 </feature>
							<threshold> 0.4296875 </threshold>
							<split pos="left">
								<output> 1.432496428489685 </output>
							</split>
							<split pos="right">
								<feature> 4 </feature>
								<threshold> 0.2109375 </threshold>
								<split pos="left">
									<output> 1.1203113794326782 </output>
								</split>
								<split pos="right">
									<feature> 8 </feature>
									<threshold> 0.22265625 </threshold>
									<split pos="left">
										<output> 1.5851812362670898 </output>
									</split>
									<split pos="right">
										<output> 1.1019259691238403 </output>
									</split>
								</split>
							</split>
						</split>
						<split pos="right">
							<output> 1.3914408683776855 </output>
						</split>
					</split>
					<split pos="right">
						<output> 0.27090251445770264 </output>
					</split>
				</split>
			</split>
		</split>
	</tree>
	<tree id="51" weight="0.1">
		<split>
			<feature> 22 </feature>
			<threshold> 0.296875 </threshold>
			<split pos="left">
				<output> -0.9363501667976379 </output>
			</split>
			<split pos="right">
				<feature> 7 </feature>
				<threshold> 0.35546875 </threshold>
				<split pos="left">
					<feature> 3 </feature>
					<threshold> 0.49003676 </threshold>
					<split pos="left">
						<feature> 1 </feature>
						<threshold> 0.36621094 </threshold>
						<split pos="left">
							<output> 1.3668619394302368 </output>
						</split>
						<split pos="right">
							<output> 2.182929277420044 </output>
						</split>
					</split>
					<split pos="right">
						<output> 1.2250832319259644 </output>
					</split>
				</split>
				<split pos="right">
					<feature> 26 </feature>
					<threshold> 0.2578125 </threshold>
					<split pos="left">
						<feature> 5 </feature>
						<threshold> 0.5 </threshold>
						<split pos="left">
							<feature> 7 </feature>
							<threshold> 0.4296875 </threshold>
							<split pos="left">
								<output> 1.3484786748886108 </output>
							</split>
							<split pos="right">
								<feature> 4 </feature>
								<threshold> 0.2109375 </threshold>
								<split pos="left">
									<output> 1.0643370151519775 </output>
								</split>
								<split pos="right">
									<feature> 8 </feature>
									<threshold> 0.22265625 </threshold>
									<split pos="left">
										<output> 1.4519245624542236 </output>
									</split>
									<split pos="right">
										<output> 1.045689344406128 </output>
									</split>
								</split>
							</split>
						</split>
						<split pos="right">
							<output> 1.307778239250183 </output>
						</split>
					</split>
					<split pos="right">
						<output> 0.24059699475765228 </output>
					</split>
				</split>
			</split>
		</split>
	</tree>
	<tree id="52" weight="0.1">
		<split>
			<feature> 22 </feature>
			<threshold> 0.296875 </threshold>
			<split pos="left">
				<output> -0.8758181929588318 </output>
			</split>
			<split pos="right">
				<feature> 7 </feature>
				<threshold> 0.35546875 </threshold>
				<split pos="left">
					<feature> 3 </feature>
					<threshold> 0.49003676 </threshold>
					<split pos="left">
						<feature> 1 </feature>
						<threshold> 0.36621094 </threshold>
						<split pos="left">
							<output> 1.2913906574249268 </output>
						</split>
						<split pos="right">
							<output> 1.6046007871627808 </output>
						</split>
					</split>
					<split pos="right">
						<output> 1.1858690977096558 </output>
					</split>
				</split>
				<split pos="right">
					<feature> 26 </feature>
					<threshold> 0.2578125 </threshold>
					<split pos="left">
						<feature> 5 </feature>
						<threshold> 0.5 </threshold>
						<split pos="left">
							<feature> 7 </feature>
							<threshold> 0.4296875 </threshold>
							<split pos="left">
								<output> 1.2860698699951172 </output>
							</split>
							<split pos="right">
								<feature> 4 </feature>
								<threshold> 0.2109375 </threshold>
								<split pos="left">
									<output> 1.0108833312988281 </output>
								</split>
								<split pos="right">
									<feature> 8 </feature>
									<threshold> 0.22265625 </threshold>
									<split pos="left">
										<output> 1.356318473815918 </output>
									</split>
									<split pos="right">
										<output> 0.9967864751815796 </output>
									</split>
								</split>
							</split>
						</split>
						<split pos="right">
							<output> 1.245914101600647 </output>
						</split>
					</split>
					<split pos="right">
						<output> 0.2166653871536255 </output>
					</split>
				</split>
			</split>
		</split>
	</tree>
	<tree id="53" weight="0.1">
		<split>
			<feature> 22 </feature>
			<threshold> 0.296875 </threshold>
			<split pos="left">
				<output> -0.815320611000061 </output>
			</split>
			<split pos="right">
				<feature> 7 </feature>
				<threshold> 0.35546875 </threshold>
				<split pos="left">
					<feature> 3 </feature>
					<threshold> 0.49003676 </threshold>
					<split pos="left">
						<feature> 1 </feature>
						<threshold> 0.36621094 </threshold>
						<split pos="left">
							<output> 1.234614610671997 </output>
						</split>
						<split pos="right">
							<output> 1.5480252504348755 </output>
						</split>
					</split>
					<split pos="right">
						<output> 1.1515822410583496 </output>
					</split>
				</split>
				<split pos="right">
					<feature> 24 </feature>
					<threshold> 0.2734375 </threshold>
					<split pos="left">
						<feature> 5 </feature>
						<threshold> 0.5 </threshold>
						<split pos="left">
							<feature> 25 </feature>
							<threshold> 0.29296875 </threshold>
							<split pos="left">
								<output> 1.1457690000534058 </output>
							</split>
							<split pos="right">
								<feature> 8 </feature>
								<threshold> 0.3359375 </threshold>
								<split pos="left">
									<output> 0.4234643280506134 </output>
								</split>
								<split pos="right">
									<feature> 9 </feature>
									<threshold> 0.31661135 </threshold>
									<split pos="left">
										<output> 1.1100234985351562 </output>
									</split>
									<split pos="right">
										<output> 1.0232433080673218 </output>
									</split>
								</split>
							</split>
						</split>
						<split pos="right">
							<output> 1.1989037990570068 </output>
						</split>
					</split>
					<split pos="right">
						<output> 0.26591479778289795 </output>
					</split>
				</split>
			</split>
		</split>
	</tree>
	<tree id="54" weight="0.1">
		<split>
			<feature> 33 </feature>
			<threshold> 0.80859375 </threshold>
			<split pos="left">
				<output> -0.7522517442703247 </output>
			</split>
			<split pos="right">
				<feature> 7 </feature>
				<threshold> 0.35546875 </threshold>
				<split pos="left">
					<feature> 3 </feature>
					<threshold> 0.49003676 </threshold>
					<split pos="left">
						<feature> 2 </feature>
						<threshold> 0.43107164 </threshold>
						<split pos="left">
							<output> 1.191129446029663 </output>
						</split>
						<split pos="right">
							<output> 3.52640962600708 </output>
						</split>
					</split>
					<split pos="right">
						<output> 1.036212682723999 </output>
					</split>
				</split>
				<split pos="right">
